75 200
ή 0.0067656301 -0.017112233 -0.0096891616 0.023843056 -0.023887413 -0.00013264138 -0.011273104 0.0035044295 0.0079789376 0.0026453496 -0.011229306 -0.013086359 0.0024636602 0.010245766 -0.012316093 -0.0090095168 0.019746356 -0.010229247 -0.015854882 0.015749605 0.010714217 0.015126165 0.0081569096 -0.013428339 -6.9331152e-05 0.0038547241 0.015447728 -0.010262992 0.0022603974 0.0024100612 -0.008235625 -0.011724743 -0.028638523 0.003775401 0.0080666337 -0.0079745296 0.013694033 0.00018720141 -0.0046768137 -0.009674374 -0.0012253658 -0.011130791 0.0074953781 -0.010033878 -0.0090698311 -0.0080004353 -0.00047543077 0.0045020049 -4.1689573e-06 0.0078492798 0.019802336 0.012775834 -0.0031388744 -0.0058382931 -0.027183712 -0.0046197064 -0.017311972 -0.014065032 -0.022423957 -0.015593486 -0.0020310425 -0.0026642059 0.0014492745 0.0012804701 -0.015768202 0.015890071 0.004188736 -0.0052713542 0.031237282 -0.022229886 -0.0085602012 0.0010912018 0.028383469 0.026500136 -0.014900859 -0.013139601 0.0061466158 -0.0010515753 0.000238526 -0.0020940688 0.011702773 0.0021211149 0.0080071464 -0.0062048789 0.026866553 0.014196753 0.012222352 0.0067831497 0.0066827764 0.0022528137 0.010739495 0.0022560817 -0.0082078753 0.0079328828 -0.0011274467 -0.015431812 -0.008854825 -0.014839138 -0.0050184759 0.013226688 -0.019011535 0.022389624 -0.0090795923 0.0199707 0.0050467183 0.0098364679 0.0042632525 -0.0065171835 -0.0085487794 -0.0099426331 0.0074573257 -0.026668333 -0.0087322313 0.0067202393 0.014786993 -0.0084711779 -0.0047812164 0.0043673925 0.01781768 0.0057921689 0.0010742455 -0.0048706001 -0.0085374219 -0.010215088 -0.0049999817 0.005674975 -0.0057204263 0.0045193443 -0.011483423 0.015325645 0.0074133468 -0.0014005163 0.011226331 -0.016020874 -0.01181974 0.016872512 0.01942054 0.018010724 0.013674044 0.02126083 0.0043191407 0.0093012489 0.01079848 0.00016550775 -0.013262437 0.0084934048 0.009637339 0.0030493704 -0.0036974046 -0.0037311723 -0.0072996025 -0.008589264 0.0044213715 0.011336185 0.017496224 -0.0093667349 0.016118804 0.0021446291 -0.0040746001 -0.0073244995 -0.0081207668 0.010916154 -0.0014696441 0.0057886178 0.022854522 -0.0026346717 0.0043939492 0.0043025482 -0.010475312 -0.025844311 0.0018559864 0.002077041 -0.0049709864 -0.013070758 0.02063144 0.032064799 -0.006768812 0.0066155493 0.027180636 -0.013111725 -0.0083708698 -0.04299365 0.014363908 -0.0024522715 0.0017891388 -0.0053815492 -0.019970246 -0.0073479963 -0.021950196 -0.012881457 0.01878191 -0.0011834643 -0.0016535906 -0.016082918 0.0049865921 0.0007248295 -0.00013912341 -0.005759072 0.0097054271 0.00095457985
του 0.004348991 -0.014854033 -0.0080083199 0.018095171 -0.018797211 -0.0034275772 -0.0052335178 0.0047917878 0.0085828081 0.0033314209 -0.0086856093 -0.010346333 0.0025110017 0.01073725 -0.0096825017 -0.0080660703 0.014559127 -0.0077421996 -0.012692112 0.012872757 0.0076820673 0.011300163 0.0063004736 -0.012447401 0.0011755197 0.0027476605 0.010314099 -0.0077433726 0.0050603631 -0.00015711767 -0.0037756225 -0.011236003 -0.021200255 0.0043839891 0.0059968275 -0.002393442 0.010759506 0.0014035985 -0.0031988882 -0.0050693327 -0.00047912594 -0.007666918 0.0067680874 -0.0070327097 -0.0062161284 -0.0061348784 -0.0013414128 0.0032256327 -0.00099090615 0.0077107525 0.011775242 0.0094727147 -0.0043399385 -0.0029782718 -0.022398658 -0.0030341323 -0.012891975 -0.011384981 -0.017695826 -0.010356383 -0.00064214086 -0.0034735524 -0.0027673678 -0.00094493193 -0.013790188 0.011009328 0.0038165441 -3.5064546e-05 0.023140535 -0.014179779 -0.0085145421 -0.00073212635 0.020677114 0.021530436 -0.0098285684 -0.0070361365 0.0045590382 -0.0015612084 0.002021136 -0.00080592243 0.010344937 0.0034788193 0.0049900869 -0.0082925698 0.017679047 0.0069290223 0.0064042034 0.0049836342 0.0044521457 0.0046992311 0.0094236732 0.00054249744 -0.0061689727 0.0069052516 1.5166848e-05 -0.012957767 -0.0078905402 -0.010901924 -0.0048904298 0.0079529593 -0.015041703 0.015271397 -0.006926253 0.014418188 0.002763913 0.0076663629 0.0039814981 -0.0029668005 -0.0062575149 -0.0093227429 0.0063337693 -0.019416939 -0.0057368912 0.0043105627 0.012148209 -0.0060234535 -0.0069035902 0.0023499471 0.014674212 0.0062688328 0.003760223 -0.0039545326 -0.0070468448 -0.0099107185 -0.00098005147 0.0050586192 -0.0037611972 0.0041053179 -0.0065331534 0.010726324 0.005238025 -0.00012086798 0.0078620063 -0.011559963 -0.0099561578 0.01207893 0.014009213 0.010428857 0.01135025 0.018320255 0.0049778121 0.0071205408 0.0067410334 -0.0011535933 -0.0082843807 0.0038637323 0.007591181 -0.00038185902 -0.00081385253 -0.0019428694 -0.004465776 -0.0050458875 0.0044095032 0.011569772 0.015045075 -0.0045719775 0.01081044 0.0014961242 -0.0069301748 -0.0078462316 -0.0069134505 0.0094686868 -0.0014235724 0.002942201 0.016710674 -0.0043892805 0.00055494014 0.0029329304 -0.0081546819 -0.019559326 0.00083057588 0.00419336 -0.0040594628 -0.0118444 0.016390966 0.02256047 -0.0034436558 0.0053142873 0.020980481 -0.010109479 -0.0060331128 -0.033386108 0.0068836575 -0.0048965858 0.00033910171 -0.0027876864 -0.011950065 -0.0017505425 -0.015945667 -0.0074987761 0.014879015 -0.0037810521 -0.00092037622 -0.014193901 0.0029701253 -3.4027424e-05 -0.0021413318 -0.0018835569 0.0066672973 0.0038862955
την 0.0052667595 -0.020641176 -0.007517301 0.020479184 -0.024700824 0.00033802481 -0.0081168823 0.004635775 0.0089031775 0.0064178011 -0.01096306 -0.0087951683 0.00332722 0.01404729 -0.010985623 -0.0072413706 0.019315116 -0.014851195 -0.016648429 0.014473208 0.012093843 0.014864451 0.0055967667 -0.01340485 -0.00026814139 0.0047353217 0.013674655 -0.010250073 0.0035719625 0.0040143495 -0.0087478496 -0.012409029 -0.029044928 0.0039140661 0.0087449905 -0.0079871062 0.010225706 -0.0023037326 -0.0020988127 -0.010051736 0.0016533579 -0.010590926 0.006695014 -0.011075505 -0.0081550134 -0.0084039448 -0.0010188546 0.007418538 0.0010673248 0.0059397384 0.015884664 0.015005353 -0.0073166685 -0.0058041578 -0.027314752 -0.0092604812 -0.016004441 -0.015818864 -0.022543292 -0.011826978 -0.0045981514 -0.003652354 -0.0022524695 0.0044753277 -0.015644444 0.016912557 0.0073667434 -0.0014565303 0.030534673 -0.021097587 -0.011808224 -0.00062746642 0.028669834 0.02710011 -0.014628213 -0.010765398 0.0079549188 -0.0030753885 0.003127144 -0.0048151221 0.013578224 0.0016200781 0.010197577 -0.0088984994 0.02839512 0.0097002415 0.01010926 0.0065167807 0.0054637152 0.0025973143 0.010299969 0.00048488678 -0.011420711 0.0049894853 -0.004160346 -0.014037938 -0.0091017969 -0.017143982 -0.0043828199 0.012070765 -0.022923652 0.022395002 -0.011972968 0.018507481 0.0052894698 0.0091250185 0.0040037255 -0.0061225696 -0.011483813 -0.0092682727 0.0052123326 -0.027238812 -0.0060996059 0.0043158652 0.014721835 -0.0065973839 -0.0055331062 0.0036062934 0.018326426 0.0082066935 0.0035053329 -0.0048884638 -0.0060987021 -0.0087509314 -0.0036876502 0.0027831034 -0.0098440237 0.0080019357 -0.0096014347 0.015377288 0.0097116204 -0.0037558789 0.009979764 -0.016833341 -0.015999788 0.019029416 0.017906707 0.015922451 0.012954241 0.023665087 0.005643053 0.0075482214 0.01010613 -0.0020883924 -0.015457977 0.0099824239 0.0095160007 0.004413682 -0.0048699831 -0.0044847671 -0.0077748187 -0.0066048489 0.0056721768 0.013525053 0.017588317 -0.0079731187 0.014777838 0.0014794355 -0.008284512 -0.0081480611 -0.0070226076 0.010010919 -0.0036361597 0.0057223844 0.023731383 -0.00053906935 0.0029222295 0.0023052124 -0.011784091 -0.026742272 0.0040565673 0.002063791 -0.006825163 -0.014417128 0.02100349 0.031049049 -0.00773544 0.0079549905 0.02480395 -0.0096682003 -0.010092794 -0.042421162 0.012675495 -0.0051845401 0.0010323685 -0.0064347265 -0.016275043 -0.0061831707 -0.023207853 -0.012970353 0.020552188 -0.0042466396 0.00052477972 -0.017824756 0.0013972524 0.0017679753 0.00075770757 -0.0036310181 0.0099667674 0.0013450233
 0.0024960875 -0.01372868 -0.0060575875 0.014858062 -0.014932261 -0.0023468197 -0.0058717211 0.0026186588 0.0067787832 0.0029949576 -0.0057598264 -0.0090894746 0.0029031497 0.0060812011 -0.0056895064 -0.00277566 0.0085471366 -0.0081061535 -0.010168525 0.0087315757 0.0058589764 0.0082947388 0.0042192503 -0.01004767 0.00031435792 0.0025034137 0.01036731 -0.0066325627 0.0050517707 0.0014142259 -0.003428204 -0.0064651542 -0.018473763 0.0038669631 0.0019423513 -0.0042088446 0.00473123 -0.0022440255 -0.0017338248 -0.004027728 0.001047937 -0.0092732962 0.006209793 -0.0072693238 -0.0052247276 -0.0055876882 -0.0025044824 0.0018944873 -0.0019434373 0.0046764831 0.012756896 0.010341477 -0.0030526153 -0.001718842 -0.018958503 -0.0042616441 -0.011739496 -0.010616424 -0.012910393 -0.0083415685 -0.00088244549 -0.0033261338 -0.00082278583 0.0019198058 -0.01158626 0.011409028 0.0032330956 -0.0014108835 0.018400066 -0.013842938 -0.008940124 -0.0024373203 0.017167913 0.018024521 -0.0082721608 -0.0082040718 0.0035152156 0.00071072439 0.00056712277 -0.0025771712 0.0088665625 0.004310803 0.0047684121 -0.0057538105 0.015609906 0.0064160232 0.0051325448 0.0023851153 0.0048887185 0.00221053 0.006297864 -0.0018723166 -0.0048509194 0.003931575 -0.00040100413 -0.0095091341 -0.0059808739 -0.0061655547 -0.0015583844 0.0071197851 -0.015260678 0.01120386 -0.0067896601 0.011523038 0.0056676138 0.0048812297 0.005331452 -0.0044108341 -0.0049929121 -0.006855472 0.0030647595 -0.013756279 -0.0062760105 0.0060379193 0.0072630257 -0.0035480438 -0.0050669867 0.0051219985 0.0084410422 0.0056372345 -0.00055530819 -0.0013192067 -0.0024808296 -0.0049197311 -0.0018428704 0.0054731769 -0.0031016648 0.0048953407 -0.0056046089 0.010672167 0.0064687207 -0.0034260524 0.0076910695 -0.01248361 -0.007570948 0.010977085 0.010043097 0.010849039 0.0062255957 0.013397873 0.006011121 0.0040815356 0.0083870888 -0.00057750416 -0.0069734491 0.0051665399 0.0055457568 -0.00024557766 -0.00061992306 -0.0044091442 -0.0038006522 -0.0030723845 0.0042103804 0.0096745519 0.010278618 -0.0077720229 0.011277022 0.00096938584 -0.0038577004 -0.0054459898 -0.0058346721 0.0049455231 0.00010602117 -8.7782013e-05 0.015885627 -0.00033730158 0.00046909958 0.0014852278 -0.0036279142 -0.01451861 0.00095334405 0.000948378 -0.0039999271 -0.0094990656 0.012761015 0.018597635 -0.0033212185 0.006851939 0.017483596 -0.0064334217 -0.0064433445 -0.026264098 0.0072683408 -0.0044779871 -0.00037152198 -0.0062204348 -0.0089820195 -0.0027190086 -0.014247619 -0.0094362879 0.0110538 -0.0033123263 -0.0018690286 -0.0078633539 0.00050105085 0.00083382218 -0.0025084482 -0.0040519312 0.0060603851 0.0013294268
και 0.0030773636 -0.014759119 -0.0077138594 0.019403655 -0.016917223 -0.0016569939 -0.0071848854 0.0013154586 0.0044547515 0.0044682538 -0.0050121946 -0.010150987 0.002631431 0.010771002 -0.010867623 -0.005785211 0.014144746 -0.012028954 -0.010851841 0.014137018 0.010449964 0.0090239914 0.0050906087 -0.013658833 0.0018818412 0.0016844239 0.0086609861 -0.0089914342 0.0041970648 -3.4809789e-05 -0.0048064049 -0.009043484 -0.021487111 0.0017835773 0.007720232 -0.0028093627 0.0094956467 -0.0030200782 0.00044729057 -0.0094992658 -0.0023261895 -0.0091891242 0.0070825676 -0.0095649315 -0.0081732646 -0.0049061254 -0.00058988499 0.0030998294 0.0010124998 0.0085932761 0.016064705 0.010105443 -0.0042498722 -0.0011048777 -0.02419007 -0.0054701781 -0.010743982 -0.010682315 -0.01917663 -0.012485766 -0.0031712262 -0.0017722119 -0.0025976889 0.00052066223 -0.01215443 0.01113612 0.0026713163 -0.0049144346 0.025036518 -0.014297859 -0.0093229413 -0.0028958879 0.020680606 0.022327667 -0.013130332 -0.010180675 0.0081954757 -0.0037054666 -6.8063739e-05 -0.0045895274 0.012263165 0.0013136058 0.0055970619 -0.0048000617 0.021052029 0.01184733 0.010453803 0.0042692018 0.0060476921 0.0010285918 0.0057467469 0.0018135716 -0.0082533574 0.0068473737 -0.0044321697 -0.010660461 -0.0051385579 -0.013680029 -0.0051499726 0.011217983 -0.019701818 0.014685825 -0.0064512049 0.013272263 0.0067699826 0.0065918523 0.0051140757 -0.0051430361 -0.0067321449 -0.0086077657 0.0021200962 -0.020197889 -0.0082491422 0.0065626027 0.011369645 -0.0041736588 -0.0078265285 0.0028759672 0.01460026 0.003922266 -0.00092914177 -0.0049343333 -0.005193606 -0.0097941309 -0.0053744358 0.0057214815 -0.0050515607 0.0046996353 -0.0076826643 0.012109191 0.0062276986 -0.002495873 0.0054397588 -0.01279641 -0.011958774 0.012969634 0.015507985 0.012191122 0.0095183766 0.019112777 0.0023494037 0.0053845998 0.010185411 -0.00055407127 -0.010808351 0.0059578698 0.0067871166 0.0035886636 -0.0053368392 -0.002460581 -0.0048334529 -0.0028737886 0.0045942385 0.012895335 0.013834762 -0.0095006358 0.011785537 0.001474486 -0.0041218703 -0.0082219681 -0.0065664779 0.0080787754 -0.0052005639 0.0018821214 0.01908806 -0.0035095594 0.00085667055 0.0039570802 -0.0071487809 -0.017771296 0.0044078976 0.0021102142 -0.0026149938 -0.013822721 0.014892952 0.02699033 -0.0053593679 0.0064713536 0.021483153 -0.0067439079 -0.0076336414 -0.034175131 0.010831567 -0.00162677 -0.0014129902 -0.0075154179 -0.01343856 -0.0040305774 -0.017699834 -0.011466434 0.017705647 -0.0024340588 0.00022589248 -0.014623743 0.0045227865 0.0012447783 -0.0017291742 -0.0029872544 0.010133569 0.0018767079
το 0.0026753729 -0.016890474 -0.0048400736 0.014701335 -0.019289758 0.00020422785 -0.007955418 0.0048337211 0.0063264063 0.00074694544 -0.0078487545 -0.0082011633 0.0053702183 0.012263255 -0.0095659057 -0.0050041215 0.012273292 -0.010679247 -0.010008034 0.01311943 0.011786321 0.012515811 0.004065692 -0.010021413 -0.00084345322 0.0036960861 0.008807756 -0.008639005 0.0044325297 0.0022260277 -0.003163286 -0.012315032 -0.021871272 0.00086138048 0.0052580009 -0.0048581082 0.0089377463 0.0010369011 4.9226925e-05 -0.0077175773 -0.00028493497 -0.011963476 0.0059925327 -0.0080422563 -0.004651906 -0.0065459018 -0.0024619985 0.0049964916 -0.0012938362 0.0045269094 0.012315302 0.012385398 -0.0023269113 -0.0030628324 -0.022287153 -0.0073030959 -0.012275059 -0.0089572016 -0.01784786 -0.0079094125 -0.0045691435 0.00037369767 -0.0010489176 0.0025828446 -0.014050139 0.012823629 0.0028266462 -0.0015406205 0.023032065 -0.017672386 -0.008434277 -0.0014642918 0.019416519 0.018597549 -0.013473184 -0.0062434939 0.0049941498 0.00095393503 0.0014718481 -0.0038817225 0.010403527 0.004593743 0.0083013121 -0.0053812321 0.01932482 0.009557982 0.0097545618 0.0069680493 0.0037080098 0.0020801227 0.0057334104 0.0019779417 -0.0076946295 0.0035243111 -0.0026624885 -0.0095382091 -0.0063121673 -0.010086802 -0.0021584728 0.0074938508 -0.015019855 0.014543346 -0.008128345 0.012839162 0.0038880876 0.0051896954 0.0062820646 -0.0031231458 -0.008973089 -0.0078714397 0.004035681 -0.020385429 -0.0044757118 0.0040282435 0.014499046 -0.0070672086 -0.0066026701 0.0036645932 0.01153338 0.0076175225 0.00055312854 -0.0002990248 -0.006361465 -0.0061228517 -0.0025099907 0.0016558147 -0.0062407167 0.0030742185 -0.0089790896 0.011181877 0.0069155232 -0.0021083162 0.0047947927 -0.015627181 -0.010597148 0.015422449 0.012105159 0.010778199 0.0087096561 0.016745755 0.0042807469 0.0065018372 0.011706863 -0.0039517665 -0.0081568491 0.0055027343 0.0057643573 0.0027736851 -0.00085915433 -0.00059178669 -0.0071335854 -0.0064020716 0.0041641942 0.009191636 0.015073168 -0.0088517535 0.011915293 -0.0009121219 -0.0064348974 -0.0041785291 -0.0066135554 0.0050491947 -0.0019035325 0.0041520456 0.015902992 -0.0038700253 0.0032476042 0.0046317009 -0.0063498253 -0.016493108 0.0028726927 -0.00015093274 -0.0058142683 -0.0092652356 0.016707946 0.026292861 -0.0039050875 0.006319202 0.021511309 -0.0098991338 -0.0046787122 -0.031903751 0.011644255 -0.0056967437 0.00131186 -0.0064747841 -0.016449068 -0.0039471705 -0.014690567 -0.0089836335 0.015632652 -0.0012324933 -0.0018776555 -0.011916528 0.0037736525 0.0027400067 0.0014541763 -0.0056435852 0.0096105151 0.00086410437
που 0.0056612869 -0.01616068 -0.0054300288 0.015757987 -0.017416712 -0.0011545074 -0.0077212201 0.0041176248 0.0044957884 0.0042925687 -0.0080935145 -0.0084203603 0.0033396147 0.0098927114 -0.0098770456 -0.0056703659 0.01203458 -0.011073668 -0.011825027 0.012038101 0.0094254175 0.008704206 0.0046960404 -0.011719514 0.00077518675 0.004397952 0.012043079 -0.005059341 0.0043554739 -0.00076916552 -0.0047790203 -0.0095537743 -0.023925953 0.0018168774 0.0040542507 -0.0062897759 0.011045213 -0.00085467519 -0.0009740431 -0.0091189044 0.00058732711 -0.011906417 0.0073918384 -0.008729279 -0.0058379839 -0.0079511916 -0.0015059677 0.0020466761 0.0016002964 0.0058606239 0.015428897 0.0086736893 -0.0046926606 -0.0023681442 -0.02271588 -0.0039703725 -0.01292146 -0.010574638 -0.014283178 -0.011250594 -0.0024266916 -0.00079337019 -0.0028287093 0.00064772123 -0.014076345 0.01021027 0.0043440321 -0.002276276 0.023813518 -0.014119804 -0.0074286968 -0.00061660516 0.021830181 0.018381685 -0.013079801 -0.0069255782 0.0043103597 -0.0011960757 -1.3360245e-05 -0.0037893774 0.010625187 0.0047301226 0.0062876455 -0.0066967974 0.019589223 0.010393742 0.0084959464 0.0032432124 0.0055109146 0.0029971665 0.0088037429 0.0025969576 -0.0051723109 0.006953591 -0.00092808966 -0.0084683243 -0.009060597 -0.011567889 -0.0020941007 0.0099965949 -0.018333327 0.014287357 -0.0060917432 0.012055841 0.0058997963 0.0042109308 0.0043213665 -0.0026476788 -0.0092929304 -0.0098337671 0.005093805 -0.019102423 -0.0076834285 0.0063884538 0.011563929 -0.0079650665 -0.004884372 0.0066149039 0.013673754 0.005081092 0.0030491101 -0.0016790829 -0.0057572634 -0.0060186312 -0.0046724048 0.0057234447 -0.0082984185 0.0050802757 -0.0050891708 0.012358962 0.0041058194 -0.0043787877 0.0089960741 -0.01512794 -0.011778906 0.014702675 0.013124097 0.013072562 0.011296448 0.018566471 0.0039054519 0.0075798747 0.0081391446 -5.8563746e-05 -0.011613306 0.0045707212 0.0059366785 0.00074028946 -0.0039860527 -0.0020319661 -0.0066718776 -0.0074089142 0.0014893952 0.01258606 0.015698172 -0.0077890381 0.0095941545 0.001011819 -0.0041717594 -0.0072377943 -0.0030155319 0.0073079495 -0.0016892848 0.0020710116 0.018845694 0.00028053814 0.0021557279 0.0016230566 -0.0052847131 -0.0187169 0.0015910557 0.0027929074 -0.0023492409 -0.0093652653 0.014729976 0.023727169 -0.0061086463 0.0081345616 0.019175062 -0.010913623 -0.0045372806 -0.03109828 0.011595161 -0.0029090331 0.0013968385 -0.0058937501 -0.015841912 -0.0020612245 -0.015905162 -0.01086908 0.01701347 -0.0043634959 -0.0031915698 -0.012105596 0.0050234627 -0.00052418391 -0.00035309867 -0.0042372937 0.0090828342 0.0043877838
από 0.0031266704 -0.015106899 -0.0072561298 0.01364738 -0.018025849 -0.0028210636 -0.0096621588 0.0025316568 0.0049070227 0.0017198594 -0.0080854865 -0.0090932474 0.0012217298 0.0079146624 -0.0093690464 -0.0036337399 0.013361962 -0.0079519488 -0.011580857 0.011121137 0.010511694 0.010943749 0.0044071916 -0.008086565 0.0018738065 0.00082168565 0.0077954284 -0.0053364253 0.0034586911 0.0018003857 -0.0075478461 -0.010272023 -0.020852828 0.0035067294 0.0029855873 -0.0053239772 0.0082347542 2.1709797e-05 -0.0039007906 -0.0089458739 0.00044112944 -0.0098912362 0.0076907421 -0.0092769684 -0.0033673511 -0.0074224225 0.00027356436 0.0021840879 0.00092869741 0.0050301827 0.01045049 0.012601674 -0.0059143929 -0.0017846804 -0.0208435 -0.0056638611 -0.011787864 -0.0093715005 -0.017701885 -0.011584383 -0.0012765952 0.00057784666 -0.0030771019 0.0037810295 -0.011470765 0.011266773 0.00467302 -0.0036537596 0.020495849 -0.015614962 -0.0061010811 0.0016020725 0.021725636 0.020159606 -0.010595579 -0.0089135608 0.0054112682 -1.5571059e-05 0.00063003978 -0.0026310135 0.0075926119 0.0048017567 0.005542832 -0.0063165789 0.021660008 0.0087826401 0.0090587735 0.0054045259 0.0063176202 -4.9741699e-05 0.0059631225 0.0025225193 -0.0090486445 0.0050186189 -0.0029652866 -0.0096360035 -0.0044845738 -0.011978849 -0.005262671 0.0068872417 -0.015931902 0.01564613 -0.0077749616 0.011896467 0.0067637423 0.0036996799 0.0059620426 -0.0044721588 -0.0059797056 -0.0087278588 0.0024868187 -0.016911801 -0.0081716757 0.0042087785 0.013994533 -0.0032953944 -0.0071392888 0.004642705 0.012142846 0.0064365715 0.00047152658 -0.0034825383 -0.0029355923 -0.0065802233 -0.0038274669 0.001411228 -0.0036370042 0.0042613097 -0.006833408 0.0084578134 0.0046863267 -0.00022470856 0.0066308011 -0.012783988 -0.010323913 0.012460695 0.013564766 0.010183373 0.0087673636 0.016906943 0.0047096345 0.0036087297 0.0080477595 0.0001076937 -0.0072740461 0.0073542027 0.0070229587 0.001467258 -0.0040041613 -0.00027216526 -0.0082802968 -0.0030225718 0.0039760363 0.009902887 0.013617584 -0.0071279015 0.012031329 0.00046241729 -0.003945793 -0.006954418 -0.0072862436 0.0050914278 -0.0033617876 0.0026464406 0.018736305 -0.0011400449 0.0030154379 0.0056140679 -0.0095903315 -0.018237693 0.0027424956 0.0009966155 -0.0040877047 -0.0095425257 0.012446914 0.022455659 -0.0048929243 0.0046685599 0.020638637 -0.0065687606 -0.0079476936 -0.032296047 0.0085061332 -0.0022997265 -0.00093396718 -0.0062689809 -0.01453054 -0.005446515 -0.015656685 -0.011212853 0.013193512 -0.0035632551 -0.0035261097 -0.0091446079 0.0047751046 -0.00030904578 -0.0023615193 -0.0020680467 0.0059198043 0.0042252876
με 0.0065306546 -0.015049391 -0.0060347752 0.018019324 -0.015975442 0.0013288404 -0.0082178637 0.0040471577 0.0083364444 0.0049858354 -0.0050297445 -0.0058136834 0.001746587 0.0071771345 -0.010511162 -0.0038858801 0.010570906 -0.0082830032 -0.0096714264 0.0095478687 0.008946605 0.010694136 0.0068045375 -0.011437475 0.00051659683 0.0036728745 0.010199948 -0.0071967244 0.0016650351 0.0005292212 -0.0071643963 -0.010061835 -0.01993585 0.0020828587 0.0039106994 -0.0063737407 0.010293308 -0.00218866 0.00043557829 -0.0089944359 -0.0024428903 -0.010487419 0.0077255541 -0.0090561295 -0.0064399173 -0.0050692772 0.0011431705 0.0060984045 -0.0011902285 0.0066048079 0.010838852 0.011299169 -0.0027844168 -0.0040676175 -0.018989125 -0.0069225179 -0.013601661 -0.010003037 -0.015440939 -0.0074126623 -0.00082923233 -0.00085143576 -0.0023875472 0.0013873635 -0.014691965 0.011944997 0.0033987465 -0.00067674997 0.021805378 -0.013726663 -0.0065718498 0.00063814601 0.019070126 0.019169679 -0.010114838 -0.0069475994 0.0050538336 -0.0021743714 0.0017864237 7.2970659e-05 0.012023035 0.0045020287 0.0086852042 -0.0075453087 0.020716954 0.0068389256 0.010114186 0.0063506826 0.0024102782 0.00016911965 0.0074468423 0.0014189527 -0.0079786601 0.0048922603 -0.00298389 -0.009154154 -0.007621516 -0.011762632 -0.0024715052 0.0090049179 -0.016801436 0.016331127 -0.0097403498 0.011815078 0.0058014789 0.0050065061 0.0030963526 -0.0027464856 -0.0070479535 -0.0095667746 0.0054268632 -0.018930577 -0.0073975623 0.0050702933 0.01234539 -0.0064706462 -0.0057139471 0.0062118648 0.012261289 0.0030356096 0.00018364335 -0.00077043741 -0.0035496252 -0.0074823275 -0.0043143076 0.0047972896 -0.0047164499 0.0034691559 -0.0073886383 0.012662747 0.0034116884 -0.0010982079 0.0063586393 -0.011753703 -0.0094429133 0.010894178 0.013733622 0.01410303 0.0065244092 0.018216701 0.0036135644 0.0074895071 0.0095810611 -0.002478638 -0.0097751422 0.0072486177 0.0072783544 0.0030982373 -0.0018209702 -0.00082023343 -0.0067825923 -0.0072763176 0.0040070009 0.011719879 0.011271001 -0.0071461829 0.010903076 0.0017116303 -0.005611354 -0.0064013568 -0.006287918 0.0068959314 -0.0038599391 0.00081334542 0.014573861 -0.001736081 0.00090620253 0.0037966457 -0.0054252986 -0.015868416 0.0012378865 0.0023117492 -0.0023097103 -0.012772208 0.011889958 0.024845405 -0.0040026112 0.0076559898 0.016347256 -0.0077064484 -0.006265407 -0.028710146 0.009893205 -0.0013245302 -8.462376e-05 -0.0036401011 -0.010821712 -0.0056319837 -0.016579315 -0.010631403 0.016575826 -0.00075615157 -0.00037524922 -0.012067178 0.00019093089 0.001336217 -0.00067176309 -0.0012049562 0.0075697787 0.00279692
της 0.0033575171 -0.014010577 -0.0072210249 0.01595268 -0.017711308 -0.0017363951 -0.006997881 0.0044622626 0.0091220168 0.0025323972 -0.0054750894 -0.0086218277 0.00053723884 0.012198199 -0.010129005 -0.0074355495 0.012375957 -0.012372392 -0.010141989 0.01039564 0.01154153 0.0078214323 0.0050117192 -0.011743437 0.0014130489 0.0025711583 0.0092578521 -0.0075345128 0.0024064721 0.0035639389 -0.0068460917 -0.011595557 -0.023222145 0.0047267652 0.00302858 -0.0071561881 0.010713097 -0.00176879 -0.00052616076 -0.0072522173 -0.0015525289 -0.010005674 0.0080106687 -0.0096091349 -0.0074452143 -0.0053967228 0.00065433269 0.0060483273 -0.0002748062 0.0051286933 0.015672559 0.0107751 -0.0064867823 -0.0054055597 -0.022720642 -0.0059493049 -0.01417403 -0.0096207904 -0.017940018 -0.0091180271 -0.00093161664 -0.0033492898 0.00054499088 -4.328353e-05 -0.013729899 0.013950844 0.0027405592 -0.0027028602 0.02418183 -0.018707221 -0.0082627647 0.00029627798 0.021313606 0.022883208 -0.0091550583 -0.010596187 0.0052797077 -0.0014378987 0.002139658 -0.0028771418 0.010235583 0.0034875674 0.0075364718 -0.0075721396 0.019052316 0.0088644959 0.0089168651 0.0036773514 0.0036835996 0.0027630848 0.0057203975 0.0018510328 -0.007880074 0.0073245 -0.00049370201 -0.011433952 -0.0049212174 -0.013299092 -0.005708226 0.0096040778 -0.019505255 0.016972249 -0.010329579 0.015183771 0.0076049678 0.0062791188 0.0060572424 -0.0031786645 -0.0086598573 -0.0095984638 0.0021232737 -0.018992098 -0.0049284319 0.0065566092 0.012628513 -0.0036778112 -0.007617536 0.0061106002 0.013123468 0.0060181725 0.0026747936 -0.003596857 -0.0065066912 -0.0096190283 -0.0030320436 0.0039939075 -0.0052686739 0.0045236754 -0.0071048392 0.010720496 0.0034741345 -0.00017665938 0.0058799349 -0.014600895 -0.0118573 0.015914764 0.011607664 0.015303338 0.008849076 0.019292805 0.0021940409 0.0080801276 0.0099351574 -0.003011937 -0.010565203 0.0062582982 0.0089115547 0.001356504 -0.00541477 -3.6456644e-05 -0.0070851319 -0.0029643464 0.0011914449 0.010285014 0.015341021 -0.0048612906 0.012005143 0.0017628409 -0.0058952086 -0.0069040158 -0.0059178579 0.0099930633 -0.004962869 0.0053174524 0.01793786 -0.0043997876 0.0018916806 0.00311681 -0.0081760986 -0.018606914 0.0014692701 0.0022764152 -0.0046129026 -0.013259688 0.014483307 0.02274411 -0.0033388641 0.008129647 0.021719655 -0.0081718555 -0.0086351829 -0.030564761 0.011497674 -0.0055139912 -0.00060640328 -0.0050836024 -0.015469894 -0.0039437702 -0.015508814 -0.0079574678 0.017383315 -0.0029129491 -0.00020284456 -0.013540104 0.00038944482 -0.00097229407 -0.0013655549 -0.0058966787 0.0061096726 0.0010545478
των 0.0046720617 -0.011714591 -0.0065161912 0.014270725 -0.011982769 -0.002089462 -0.0071535376 0.0046755834 0.0069865314 0.0019646087 -0.0072043543 -0.0083892969 0.0032761679 0.0094748484 -0.0063128341 -0.0020977485 0.01056529 -0.0072575966 -0.010427456 0.0086804833 0.0086427415 0.0060478291 0.0023106723 -0.008112872 0.0014538292 0.0044071465 0.0059052701 -0.0045317728 0.004262656 0.0013063237 -0.0048673968 -0.0092267189 -0.017504025 -0.00010770634 0.0057726153 -0.0024741495 0.0065977303 -0.0029271918 -0.00098994584 -0.0033970715 0.0018892279 -0.0076043066 0.0041209157 -0.0078824228 -0.002101976 -0.0067945886 -0.0022887117 0.0036318467 0.00010118041 0.0023342345 0.011804718 0.0090778368 -0.0033207615 -0.0020975657 -0.017097363 -0.0054315794 -0.0092832819 -0.0070432681 -0.013054144 -0.0097156493 0.00047095816 0.0016098315 0.00096023071 -0.00085716159 -0.011781264 0.0095879259 0.0034351852 -0.001146175 0.017573325 -0.013917331 -0.0076287733 0.0020206666 0.012722748 0.015561051 -0.0075208368 -0.0082933614 0.0035319105 -0.00037051691 -0.00084343209 -0.0007105234 0.0097177792 0.00018489914 0.002851204 -0.0062905499 0.016899018 0.0082486235 0.0037008831 0.002124812 0.0033281313 0.00012777411 0.0072051561 0.00094092143 -0.0074202581 0.0022645129 -0.0016158768 -0.0090006357 -0.0067747338 -0.0091118282 -0.00097665878 0.0073709954 -0.014604586 0.012564314 -0.0071169413 0.0080626151 0.0016841703 0.0056695971 0.004933509 -0.0037712327 -0.0053877584 -0.0065936144 0.0031139166 -0.013389565 -0.0051771039 0.0027558871 0.010590361 -0.0062051481 -0.0036514683 0.0047614253 0.0076232962 0.005444407 -0.0010225193 -0.0026139363 -0.0042922818 -0.0053061629 -0.00013456169 0.0037508595 -0.0031343105 0.0056755915 -0.0074196081 0.010149475 0.0018467554 -0.003000919 0.0052280184 -0.0097440118 -0.0082446346 0.012046232 0.0089827953 0.0078355009 0.0092057921 0.013254809 0.0036120308 0.0057007722 0.0044289632 -0.0036174695 -0.0092115439 0.0068614823 0.0030255846 0.0026622992 -0.0028251577 -0.0037113428 -0.0027770817 -0.0024331668 0.0033234581 0.0054186345 0.010881725 -0.0059525496 0.0092730047 -0.00052957493 -0.0017430451 -0.0043498683 -0.0030264964 0.007017321 -0.0022220463 0.0031793127 0.014455603 -0.00021552395 0.0020387117 0.0016497718 -0.0071234372 -0.014010363 0.0038762938 0.00090872758 -0.0011277401 -0.010251709 0.011233321 0.020078117 -0.0021261994 0.0047869491 0.014449824 -0.0050780717 -0.0031255449 -0.025054168 0.0065359594 -0.001911685 -0.0015403598 -0.0041566058 -0.012109257 -0.0041400688 -0.01396009 -0.0078383423 0.012913629 -0.00057156105 -0.0029293874 -0.0088248467 0.0042449525 -0.0010260043 0.0016429371 -0.0001813972 0.0031075731 0.0010667765
η 0.0051658102 -0.010963643 -0.0076068789 0.015423779 -0.015708081 -0.0029017257 -0.0063545727 0.0024434305 0.0030662077 0.001791102 -0.0043858369 -0.0083078053 0.0043393518 0.0065181516 -0.0074707926 -0.0051153265 0.01312776 -0.0081431186 -0.0089518288 0.011309213 0.0083312513 0.0080348942 0.0028485474 -0.0072513712 0.0015935281 0.005160315 0.0079636397 -0.0050706691 0.0042146626 0.0023690045 -0.0040432038 -0.0076036751 -0.017593585 0.0016687076 0.0051594027 -0.0035103881 0.0069866441 -1.1769127e-05 -0.0030627747 -0.0081315851 0.0014000096 -0.0086771566 0.0077760997 -0.0055497745 -0.0042954814 -0.0046824543 0.0011262782 0.0017823075 -0.0019918196 0.0048886444 0.012787367 0.010330205 -0.0044282838 -0.0003101732 -0.014912814 -0.003884512 -0.0088933352 -0.0084707933 -0.015671559 -0.010816462 -0.0030163475 0.0015486242 -0.0028327405 0.0021720557 -0.0099169966 0.0088913413 0.0026736823 -0.0033352887 0.019506998 -0.011740771 -0.009108101 0.00056829944 0.017795717 0.016975909 -0.0083595999 -0.0069699688 0.004339634 0.00029528135 0.0026173107 -0.0027320706 0.0086796014 0.0022055893 0.0047283629 -0.0033618591 0.018582312 0.0071914559 0.0047295885 0.0018450979 0.0051275543 -0.00045828053 0.0045866054 0.00016523026 -0.0063290671 0.0049510873 0.00071950228 -0.010038627 -0.007414808 -0.0078139342 -0.0048850183 0.0089791985 -0.014014699 0.012405815 -0.008238229 0.0097840354 0.0062844697 0.0049379463 0.0063081007 -0.0011009804 -0.0033982247 -0.0069675641 0.004046787 -0.016520929 -0.0071280529 0.002870132 0.0090276133 -0.0019966075 -0.0045248936 0.0022448683 0.012481572 0.0041100713 -0.0005918747 -0.0021054028 -0.0067573981 -0.0086992392 -0.0014415631 0.0044271424 -0.0062087732 0.0016910648 -0.0056161564 0.0096165864 0.0056987731 -0.0011698196 0.0076153576 -0.0088291382 -0.0096865511 0.012822674 0.011331262 0.012517387 0.0083489865 0.013382385 0.0032731371 0.0037193126 0.0078276508 -0.0017701135 -0.007947566 0.0049339468 0.0063250135 0.0031815947 -0.0011513383 -0.002819146 -0.0067276247 -0.0066566453 0.0035487677 0.0086630601 0.0098047713 -0.0053907842 0.011697709 -0.00039422981 -0.0033433484 -0.0066334247 -0.0046016281 0.0038454365 -0.001127167 0.0043532746 0.01544132 -0.0014224024 0.0020031044 0.0019201919 -0.0061516273 -0.016084092 0.0027328394 0.0017410474 -0.0049662846 -0.0083630932 0.010222466 0.022177482 -0.0052177408 0.0061293407 0.015462673 -0.0049417075 -0.0079496736 -0.024970623 0.0079079559 -0.0032094663 -0.0023036783 -0.0024344285 -0.013222106 -0.0035593293 -0.01321681 -0.0057100416 0.014139391 -0.00018151455 -0.0022467456 -0.0099831214 0.0033889764 -0.00018365844 -0.00068067602 -0.0051320996 0.0044368869 0.0013940897
Ασφαλείας 0.002413396 -0.0074138306 -0.0040734471 0.010770086 -0.012030749 0.00092535734 -0.0048055099 0.003825207 0.004261523 0.002399591 -0.0057590138 -0.0040141777 0.001225946 0.0048443833 -0.0071280706 -0.0049429238 0.0096380133 -0.0042999131 -0.0089455266 0.0041092751 0.0036803009 0.0033390154 0.003051857 -0.0076654633 0.0023234398 0.0019930273 0.0081026414 -0.0049367654 0.0034647218 0.0026774807 -0.0035381808 -0.0081607662 -0.012816996 -0.00032089252 0.0042590154 -0.0030815797 0.0037440362 -0.0025577419 0.00027987445 -0.0024197462 0.00013813822 -0.0048830165 0.005906092 -0.005295496 -0.0036036079 -0.0018222906 0.00067436462 0.00041700419 -0.0022613381 0.0061060442 0.0086781327 0.0043368107 -0.0022045453 -0.00022460138 -0.011427836 -0.0037073358 -0.0050603151 -0.0057504643 -0.010946105 -0.0078920731 -0.0012696935 0.0015095341 -0.0010632267 0.001633452 -0.0099712051 0.0084130447 0.0038244298 -0.0035380328 0.014575828 -0.01147118 -0.0058525167 -0.0019780137 0.009592589 0.014271933 -0.0082964506 -0.0063419128 0.0028643678 -0.0024284285 -0.0014661764 -0.0033028603 0.0081341704 -0.00024849371 0.0061354502 -0.0033922594 0.013630444 0.0064732973 0.0067256349 0.0010076833 0.0012931222 0.0018167857 0.0064083189 -8.4288331e-07 -0.0024118142 0.0044160835 -0.00032230449 -0.0041463044 -0.0057866541 -0.0070163235 -0.003833347 0.0056919502 -0.011490142 0.011034803 -0.0050368397 0.0062430878 0.00095129001 0.0027625991 0.00055917824 -0.0021712705 -0.0051972414 -0.0040660468 0.0021199028 -0.0099031227 -0.0046396353 0.0040845694 0.0074967877 -0.0051897294 -0.0026694636 0.0033754171 0.0088556716 0.0023651128 0.00175645 -0.0034648064 -0.0011396132 -0.0048860149 -0.0037606431 0.0012271835 -0.0047924756 0.0038270738 -0.0061283158 0.0044551361 0.0038435287 -0.0019986425 0.002764168 -0.0098782126 -0.0077560088 0.0097729946 0.0073056002 0.0063247164 0.0033250931 0.010638482 0.0019818817 0.0043763304 0.0061104284 -0.0030385351 -0.0071975361 0.00402351 0.0054188371 0.0003996813 -0.00091229193 -0.001809153 -0.0057403301 -0.0048809154 0.0022540186 0.0064990022 0.0075020273 -0.0015680599 0.0050340272 -0.0017268794 -0.001851622 -0.0063113128 -0.005497383 0.0063119661 -0.00027465011 -0.00018860905 0.010990706 -0.00098407443 -0.0002132128 0.003971972 -0.0031541188 -0.011315043 0.0036371553 0.0017218611 -0.003029193 -0.0064569302 0.010283176 0.012730022 -0.004626839 0.0029895164 0.011555444 -0.0066852486 -0.0023957854 -0.019929733 0.0044361823 -0.0031226613 -0.0025606537 -0.0044318363 -0.010109361 -0.0045087934 -0.011285481 -0.0059037395 0.0097743981 -0.0015058968 0.00058516127 -0.0053447946 0.0038245046 -0.00010328295 -0.0003196738 -0.002760171 0.0029252621 -0.0003453531
για 0.0029326035 -0.0061363811 -0.0030167704 0.0098845214 -0.0099541973 -0.0020837856 -0.0051487209 0.0023714055 0.002605112 -1.6742297e-05 -0.0051886346 -0.0050419453 0.00078411138 0.0036820837 -0.002461035 -0.0014098012 0.0088566281 -0.0051389919 -0.005468545 0.0065774475 0.0027506177 0.0045109368 0.00072789943 -0.0042420062 0.0025324852 0.0038004441 0.0043032807 -0.0046454668 5.993951e-05 0.002695221 -0.0048995768 -0.0056427177 -0.013264543 0.0014754314 0.0049337177 -0.0025977823 0.0050048432 -0.0024446307 0.0010635084 -0.0060654576 -0.0024061427 -0.0063735368 0.0060173236 -0.005908716 -0.0022821876 -0.0044276798 -0.00066994311 0.0015759821 0.0006963663 0.0013951979 0.0061887414 0.0042564617 -0.00031964772 0.00060057366 -0.0092193922 -0.0010383929 -0.007909961 -0.0060715862 -0.010409831 -0.0071177804 -0.00049132179 0.0011860833 -0.00036283338 -0.0012661229 -0.0088088373 0.0077111907 0.001432172 0.00036327992 0.014121477 -0.0074474998 -0.0050379685 -0.001270233 0.0089239394 0.012118158 -0.0039690346 -0.0040253103 0.0020487395 -0.0021451705 0.00092121761 -0.0015452565 0.0040621827 0.0022805401 0.001650714 -0.003917696 0.011191908 0.0030514097 0.0033071761 0.0045809126 0.0048290733 0.0023876315 0.0051647839 0.00097726693 -0.0043196217 0.0042767767 -0.00062543328 -0.0078440094 -0.0038371133 -0.0061095096 -0.00075441157 0.004660632 -0.0088967532 0.0055334163 -0.00426229 0.0046973699 0.0015897955 0.0020960998 0.0029684859 -0.0032437048 -0.0045500766 -0.0024107285 0.0028112987 -0.010909302 -0.0030410667 0.00072315161 0.0053949603 -0.0051828353 -0.0028136964 0.0045112139 0.005196928 0.0031520529 0.0016804945 0.00083722972 -0.0051334165 -0.0053206333 -0.0031871265 0.0040833838 -0.0030998199 0.00022102153 -0.0046835402 0.0041941125 0.00048799609 0.00063529547 0.0021141074 -0.0056995223 -0.006404086 0.0093667042 0.0082539469 0.0080848066 0.0057358476 0.010356474 0.0040051383 0.0038410602 0.0039860443 -0.0028826604 -0.0049544135 0.0038616881 0.0014811915 0.0011528467 -0.00085246534 -0.0018265236 -0.0056160097 -0.0010801395 0.0022656159 0.0064432286 0.0084496206 -0.0026400664 0.005667042 0.0013193494 -0.0031945645 -0.0024394447 -0.0018783462 0.0044186045 -0.0031077997 0.00026015285 0.010855461 -0.0009152565 -0.00014941597 0.002566718 -0.0052959607 -0.007086385 0.0034745168 0.0023529625 -0.00030108512 -0.0059285816 0.0081886128 0.015003698 -0.003403059 0.0017051816 0.011223411 -0.0066742711 -0.0019294788 -0.018821038 0.0030603891 -8.2562008e-05 -0.00029632432 -0.0037644845 -0.00574543 -0.0028570162 -0.0103422 -0.0054198359 0.0064088563 -0.0026714816 -0.0017342243 -0.008118134 0.0016909678 0.0023792014 -0.0027257369 -0.0025114317 0.0057112803 -0.0013183368
2015 0.0021726801 -0.0076333238 -0.0029760299 0.012847653 -0.011421819 -0.00060068833 -0.0032346365 0.0039846664 0.0042759855 0.0030855669 -0.0021164245 -0.0049604052 0.0036743716 0.0069292458 -0.0073485607 -0.0030112595 0.0098310523 -0.0060930671 -0.009378517 0.0049590622 0.0076412125 0.0050876918 0.003614828 -0.0071688434 0.00051058352 0.0042039314 0.0077553084 -0.0041876496 0.0042339382 0.002553412 -0.0011994793 -0.0065816743 -0.014244069 0.0030417175 0.0012655519 -0.0018687223 0.0049476442 -0.0021962698 -0.0029238812 -0.002199023 -0.00039974909 -0.0054177349 0.0061069275 -0.0049903351 -0.0061496035 -0.0050774361 -0.0028459192 0.00088284962 -0.0025267634 0.0022838484 0.0099531114 0.0050090593 -0.0023922678 -0.001323525 -0.015580333 -0.0029890644 -0.0098483423 -0.0086515611 -0.010245789 -0.0052166842 -0.00073941331 -0.00091892399 -0.00078754325 0.0015264759 -0.0079875477 0.0094915116 0.0049401456 -0.00092920061 0.012059267 -0.0089158649 -0.007357059 -0.001577343 0.011679055 0.01350879 -0.0059855967 -0.0044549233 0.0043105325 -0.002757956 -0.00032156293 -0.00065184239 0.0059010871 0.0023699007 0.0036580146 -0.0020216729 0.014199008 0.0059006424 0.006178482 0.0025303962 0.0024309817 0.0021481807 0.0022906433 -0.0018673646 -0.0061665121 0.0019242286 -0.0012163246 -0.0049226354 -0.0026774276 -0.0057282015 -0.00082356372 0.0035888834 -0.0080299685 0.0099291643 -0.004974023 0.010313515 0.0040930808 0.0055127628 0.0011696828 -0.0032089646 -0.005853191 -0.0063215243 0.00083852338 -0.009932912 -0.0024267933 0.0032976705 0.0082819834 -0.0020198629 -0.0036668372 0.002702323 0.010124167 0.0021510248 0.0015387771 0.00089369336 -0.0040046005 -0.005771643 -0.00086388667 0.00074573938 -0.004308634 0.0024712484 -0.0018829603 0.0046903379 0.0022430248 0.00099590269 0.0022572151 -0.0066781868 -0.0089918645 0.009099762 0.0091488734 0.0097487476 0.0067747938 0.012045098 0.0036670612 0.0043816236 0.0063509024 0.0012698283 -0.0051772073 0.0033650133 0.0037994829 0.0004013227 -0.00044025079 -0.00041555503 -0.0045818225 -0.00084209233 0.00076122757 0.007740567 0.010378093 -0.0030558442 0.0069444897 -0.0015778395 -0.00067983143 -0.0037859376 -0.0014874926 0.0029093681 -0.003974963 0.00023467903 0.009002028 -0.0031390993 0.00023748014 0.0041433861 -0.0054882905 -0.01046909 0.0029098797 0.0032932328 -0.0029810043 -0.0068773651 0.011285951 0.01534275 -0.0020090027 0.0054031773 0.010550044 -0.0029183349 -0.0030238573 -0.019756991 0.0039676214 -0.0019353695 0.0014134527 -0.0042528678 -0.0074367956 -0.0043101357 -0.0094926562 -0.0073482823 0.0079367589 -0.0021059404 -0.0019672988 -0.0078487433 0.0016222771 -0.0012976109 -3.4618731e-06 -0.0012511226 0.003619602 0.0035651973
απόφασης 0.0040925615 -0.0079063922 -0.0032251093 0.0093014836 -0.011860427 -0.0018396016 -0.0024792124 0.0032235521 0.0047256406 0.002750814 -0.0041721435 -0.0071716574 0.0015896782 0.0050010555 -0.005935418 -0.0055598198 0.0099075679 -0.0077457675 -0.0062771174 0.0071122642 0.007258045 0.0051108054 0.0040440899 -0.0067293518 0.0011904073 0.00045734827 0.0057008555 -0.0047250832 0.004193115 0.00040069109 -0.0013981672 -0.0085650291 -0.012703103 0.0013075587 0.0013603945 -0.0026026689 0.0049320911 -0.0015310759 -0.0026881592 -0.0023525225 0.00062140659 -0.0052080979 0.0049708881 -0.007088922 -0.0026210609 -0.0036974777 1.2341208e-05 0.0043158955 -0.0010976371 0.004087653 0.0069479048 0.0062379725 -0.0029822155 -0.0024671077 -0.01616106 -0.0010708289 -0.0087148566 -0.0057404805 -0.010862176 -0.007584237 -0.0038003442 0.0015352503 -0.0027746467 0.0029833962 -0.0090995142 0.0051078647 0.0048441375 -0.0012897933 0.015171918 -0.012198054 -0.0067932955 0.00071769906 0.012273137 0.013686174 -0.0064459611 -0.0045302319 0.0054970272 -0.0026836819 0.00025681284 -2.8997598e-05 0.0062491777 0.004130037 0.0026494956 -0.004242335 0.015199234 0.0064828447 0.0045830109 0.004390189 0.0048604091 0.0029412238 0.003584123 -0.00127939 -0.0048553683 0.0007772728 -0.00011552317 -0.0059130397 -0.0060202531 -0.0072586956 -0.0047804546 0.0042029377 -0.012388949 0.011887017 -0.0054081888 0.01027632 0.0020132549 0.0059313015 0.0009533494 -0.0024333517 -0.0049296296 -0.0050157406 0.00025674966 -0.013165385 -0.0025614956 0.0021941976 0.0086790929 -0.0032327678 -0.0015208401 0.0006755371 0.0059964075 0.0041862777 0.0012582402 0.00013263483 -0.0038546373 -0.0051416587 -0.0032282355 0.0047831642 -0.0042488202 0.00061488675 -0.0019417937 0.0083701238 0.0038180398 0.00091502612 0.0057267374 -0.0087573593 -0.0050622108 0.01113037 0.0099981586 0.010616165 0.0065129064 0.011424751 0.004203896 0.0062741567 0.0038918655 -0.00053135009 -0.0070546232 0.0038020015 0.0025879387 0.0021773984 -0.0024146161 -0.0010967999 -0.0032354896 -0.0042265244 0.00083918631 0.0084221317 0.010457942 -0.0049004965 0.0056746444 -0.00038605655 -0.0016364801 -0.0034439254 -0.0021610679 0.0022114457 0.00064434292 0.00185843 0.01118839 -0.002334239 0.0030395007 0.0015318838 -0.0059215352 -0.013069105 0.0028303824 -0.00047540368 -7.2572235e-05 -0.0053098258 0.011394937 0.017562389 -0.0047112685 0.0048716879 0.013453308 -0.0047406871 -0.0039927405 -0.021057757 0.005617172 -0.0043769577 0.0010587488 -0.0037135102 -0.009740321 -0.0039359131 -0.010488412 -0.0046347883 0.010227421 0.00053753174 -0.00062126917 -0.0076597291 0.0020020856 -0.0016049501 -0.00048712312 -0.0038158102 0.0025758001 0.0026243427
στην 0.0019175285 -0.01205109 -0.0078476537 0.012494536 -0.012864966 -0.0022952526 -0.0058181705 0.0017507197 0.0072941249 0.00072564802 -0.007162815 -0.0071208421 0.00068841386 0.0064215111 -0.0056891213 -0.0037329558 0.012016202 -0.00753373 -0.0088713467 0.011645344 0.010412134 0.0088292984 0.0049684364 -0.010017682 0.0026560354 0.0028568555 0.0075632185 -0.0068973112 0.0021653103 -0.0011189972 -0.0029485945 -0.0097018145 -0.017652692 0.0043973317 0.0062959958 -0.0043990058 0.0094300322 0.00099760154 -0.0031815958 -0.0040238257 0.0017444489 -0.0085412012 0.0058019189 -0.0083169201 -0.0033273308 -0.0053651007 -0.00041723016 0.005165684 -0.0009923355 0.0041798498 0.013733276 0.01096894 -0.0030446087 -0.003063235 -0.016252877 -0.0022501748 -0.011519608 -0.010659282 -0.014649045 -0.0092558227 -0.0012791145 -0.0010322551 -0.0018535635 0.00019282628 -0.012816364 0.010018883 0.0045792856 -0.0015132196 0.019981969 -0.01409216 -0.0060103731 -0.0010269085 0.015308475 0.019676184 -0.0092988592 -0.0084447609 0.0058320686 0.00091687572 0.002669767 -0.0028269417 0.0092511959 0.00015612706 0.0062275007 -0.0063976464 0.019180037 0.010253861 0.0084363269 0.0039657983 0.0050331987 0.00065907266 0.0043255282 -0.00063851854 -0.0047527258 0.0048762253 -0.0041169743 -0.010304281 -0.0036284968 -0.0069047138 -0.0045428337 0.0083869658 -0.015907606 0.012901779 -0.009505989 0.013847264 0.0063645542 0.0051983418 0.0046722097 -0.00081642636 -0.0067054168 -0.0074809878 0.0034981475 -0.016681112 -0.0058003091 0.0028036435 0.011005965 -0.0056144567 -0.0052113216 0.0048592682 0.011859324 0.0065079657 -0.00030981877 0.00038629287 -0.0048503177 -0.0083576785 -0.0047659567 0.0024919072 -0.0073472033 0.0031239293 -0.0062610693 0.010350369 0.0049419771 -0.0030414204 0.0068725548 -0.0089141028 -0.0078664254 0.010431196 0.012070666 0.0094040427 0.0083636306 0.011563092 0.0061043729 0.0053825453 0.0059472839 -0.0029254721 -0.0071194586 0.0038915891 0.0063542132 -0.00034464622 -0.0040656207 0.0001080051 -0.0047498355 -0.0060967775 0.0024381434 0.010240422 0.01135533 -0.0071912296 0.011310414 0.0024747027 -0.002057822 -0.0080029434 -0.0052226577 0.0059957891 -0.0032592777 0.00191351 0.012677667 -0.0010880999 0.002742104 0.00469886 -0.006551038 -0.017746305 0.0014159398 -0.00031541707 -0.0012917093 -0.007996778 0.011006585 0.020193219 -0.0054362277 0.0044732946 0.0180001 -0.0081301918 -0.0082462551 -0.027681381 0.010216061 -0.00080366438 -0.0020688302 -0.0062881219 -0.011990593 -0.0011291025 -0.012951992 -0.007328914 0.012585063 -0.0013294909 0.0011654219 -0.0077549433 0.0033317925 0.0014843136 0.00051549595 -0.0018160382 0.0063968305 0.0039259605
οι 0.0018115412 -0.01083703 -0.003189258 0.0083145313 -0.010425793 0.0017497827 -0.0054274984 -0.00050739979 0.0018265403 0.00078569527 -0.0047441027 -0.0043721478 0.00221368 0.0055700745 -0.0081479903 -0.0058990694 0.0090638781 -0.006145901 -0.0049681072 0.0084129376 0.0077244961 0.0074274703 0.0043785139 -0.0070082149 0.0011093209 -0.00014046332 0.0077206986 -0.0052171606 0.0023024383 0.0024154293 -0.0021354377 -0.0076691727 -0.01479361 0.00079640571 0.002354413 -0.001492237 0.0067573185 -0.0016762823 -0.0026005062 -0.006699502 0.0015770688 -0.004453986 0.0062254327 -0.0054730591 -0.0023866433 -0.002740229 -0.0029672268 0.0045736879 0.0020770465 0.0042040362 0.0075359163 0.0071564792 -0.0046629249 -0.0035737837 -0.012642085 -0.0015329418 -0.0051037814 -0.0065105422 -0.011249982 -0.0067169243 0.00082742557 -0.0019352353 0.0020338686 0.0028482543 -0.010745488 0.0088250712 0.0031532785 -0.00069211476 0.01495285 -0.010827179 -0.0063906312 0.00010939909 0.012298296 0.011958543 -0.0078417081 -0.0029440394 0.0043597468 -5.4678527e-05 0.0033836516 0.00071986031 0.0075603938 0.0026632112 0.0046838927 -0.0054354388 0.010760208 0.0032585694 0.0074072285 0.004290205 0.0020270541 0.0035577649 0.0045011989 0.00043153489 -0.0034366336 0.0041159508 -0.00010473194 -0.0084954854 -0.0057917 -0.008644863 -0.0038648013 0.0046486203 -0.012096601 0.0096117565 -0.0072201979 0.0059447931 0.0044406527 0.0044153146 0.0046886322 2.7287069e-05 -0.0036900025 -0.002402321 0.0042945687 -0.012905629 -0.0042449445 0.0011688014 0.0088853352 -0.0026722888 -0.003491902 0.0023191099 0.0097330166 0.0058089327 0.0014805588 -0.0016284075 -0.001552658 -0.0072983135 -0.0027677871 0.00074791588 -0.0060867746 0.0027456291 -0.0038907619 0.0084423348 0.0047289873 -0.00034474063 0.004373535 -0.0091435881 -0.0088262623 0.0095430529 0.0099849459 0.010152345 0.0049075685 0.0089780781 0.0043479633 0.005781115 0.0060320012 -0.00074310036 -0.0049648811 0.0024334216 0.0066582332 0.0015651529 -0.00089893857 -0.00046761549 -0.0019501525 -0.0052579283 0.0029380922 0.0041004531 0.010606042 -0.0033336852 0.0096334657 0.0029369588 -0.0050461064 -0.0065577859 -0.00089256302 0.0052613816 -0.00044857338 0.0035623254 0.012267403 -0.0035853626 0.002999505 0.0031383962 -0.0067125089 -0.010142303 0.0040271669 0.0022418029 -0.001534763 -0.0083448803 0.0090418002 0.015813297 -0.0043955748 0.0061626323 0.012212496 -0.0060316687 -0.0048269224 -0.017806366 0.0058425465 -0.0034528791 -0.0010592983 -0.0049625551 -0.0071919877 -0.0019944129 -0.0085189538 -0.0084497649 0.0085929483 -0.0010953738 -0.0024387778 -0.0057268245 -0.00071681425 -0.00021623747 -0.0029858605 -0.00053035788 0.0064054485 -0.00049937837
στο 0.0032625091 -0.0084115705 -0.0027181611 0.012361581 -0.0083703622 0.0017393405 -0.0066846889 0.0022559371 0.0031712893 0.0034417626 -0.002644703 -0.0063310093 0.0017732022 0.0084353583 -0.0073381099 -0.0043618144 0.0066954163 -0.0085117631 -0.0093094772 0.009135724 0.0083754053 0.0050952458 0.0042176107 -0.006950682 -0.0011095954 0.0040467978 0.0048591453 -0.0026820565 0.0046496168 0.00015283225 -0.0029081998 -0.0041261315 -0.01167867 0.0022863632 0.00073925342 -0.0033163682 0.0043072561 0.0018384204 0.001139253 -0.0055991812 -0.00096860458 -0.0071690837 0.0058274087 -0.0073035317 -0.0014690481 -0.0025201549 -0.0014945394 0.0050206939 -0.00017192373 0.0052226973 0.0087451283 0.0065069646 -0.0017512525 -0.00027630152 -0.014330458 -0.0056707379 -0.0062559252 -0.0090645729 -0.010380831 -0.0082073389 -0.0022758853 -0.0013439668 0.0016550486 0.001884677 -0.009615982 0.0081457505 0.0029996219 9.0427493e-05 0.013239228 -0.010530745 -0.0064548082 0.0019582547 0.013941276 0.011657617 -0.006528697 -0.0069127711 0.0022551632 2.782606e-05 0.0017006886 -0.0013537782 0.0068364134 0.0023855469 0.0063621053 -0.0061797067 0.013937276 0.003854129 0.0044356314 0.0030456805 0.0014654977 -0.0005732234 0.0070787854 -0.0014291008 -0.0066280928 0.0041318154 -0.0031096525 -0.0057674157 -0.0031487774 -0.0055220281 -0.0021645657 0.0055673532 -0.012207097 0.009574336 -0.0069206106 0.0098405471 0.0021687758 0.0052484442 0.0030319919 -0.0040868875 -0.0019922983 -0.0046397359 0.0020054639 -0.01418068 -0.0027881525 0.0028654903 0.0085036699 -0.0020712472 -0.005584239 0.005182554 0.0098243579 0.0058650565 -0.0013771027 -0.001589205 -0.0043094903 -0.0045937644 -0.00096539117 0.0049083284 -0.0028630565 0.0032437851 -0.0059532863 0.009232753 0.0056967167 -0.0028480554 0.0060026161 -0.010043941 -0.0083242627 0.0090273656 0.0078769447 0.0074516078 0.0045159636 0.010282067 0.00093513104 0.0059752371 0.0083191236 0.00018228404 -0.0044378666 0.0028065529 0.0066322754 0.0030048997 -0.00087268429 -0.0034610266 -0.0058665136 -0.0047417581 0.0032642053 0.0044088112 0.010496526 -0.003963585 0.0087881917 -0.00067636929 -0.0045973747 -0.0043049478 -0.0037933604 0.0068668635 -0.0037377204 -0.00038585821 0.011079581 0.00043937389 0.0014003674 0.0025021688 -0.0069058859 -0.01130055 0.0033141919 0.0037758336 -0.0010153411 -0.0055355905 0.0070128571 0.01751921 -0.0025966361 0.003437279 0.011788319 -0.0067312969 -0.0032231631 -0.020314187 0.0061329138 -0.0019474583 0.0017514952 -0.0056359605 -0.009227084 -0.0037016734 -0.010580556 -0.0075211814 0.010088394 0.00091693999 0.00079051097 -0.0063543478 0.00023463403 -0.0020827882 -0.0011580257 -0.00133319 0.0067716008 0.0026102061
να 0.0022309043 -0.007638176 -0.0035964961 0.01075371 -0.0090495506 -0.00058311952 -0.0031848915 0.0024695927 0.0023429957 0.0030596163 -0.0025313904 -0.0076385238 0.00056720368 0.0065985168 -0.0080497349 -0.0037481489 0.010768346 -0.0075367442 -0.0067504076 0.0083238268 0.0063863047 0.0072536548 0.0010210761 -0.0067699957 -0.00071438169 0.0038052106 0.0062916186 -0.006138118 0.0011638694 0.0015995688 -0.0048138634 -0.0063153505 -0.01504582 0.0036655185 0.0039180936 -0.0050607193 0.004517111 -0.0023495872 -0.00049433083 -0.0030404385 0.00086922565 -0.004082886 0.0055004405 -0.0068809427 -0.0047158818 -0.005816794 -0.00071455527 0.00097280863 -0.0010463403 0.0048657591 0.0095784133 0.0079531204 -0.0038248291 -0.0011804544 -0.013365261 -0.003259684 -0.0089777699 -0.0082709379 -0.011280835 -0.0079864347 -0.00058924651 -0.0020622613 -0.0018268847 -0.0012921038 -0.0075310352 0.008214036 0.0046176403 -0.0033776131 0.016052121 -0.011337684 -0.0031364867 -0.00078036019 0.011116608 0.010952139 -0.0091957133 -0.0052344915 0.0010375753 0.00029604894 0.0013312662 -0.0029103102 0.0077820453 0.0016517552 0.0062999125 -0.0017713588 0.013456246 0.0045062341 0.0040595825 0.0036547193 0.001149682 0.0028106607 0.0069942004 0.001627562 -0.0046651042 0.0013877328 -0.0037044541 -0.0056336857 -0.0032302386 -0.0060800225 -0.0041446136 0.0050103972 -0.010365347 0.011981194 -0.0067900638 0.0064235558 0.0029307064 0.0015029708 0.0045649917 -0.0042721378 -0.0035017806 -0.0063407598 0.0013869716 -0.01405702 -0.0056874384 0.0043757847 0.010049614 -0.0049891775 -0.0014898841 0.00092628086 0.009774602 0.0043655052 -0.00026862536 -0.0022569406 -0.0013791082 -0.0043815486 -0.0025751286 0.0023889148 -0.0057083555 0.0018352626 -0.0026975875 0.0074230609 0.0019179854 -0.0028440682 0.005634204 -0.01048559 -0.0084695918 0.0094453413 0.0059882486 0.0098484447 0.0041644685 0.008024537 0.0018100191 0.0061672167 0.0039181043 -0.00064447464 -0.0081586111 0.0032982079 0.0064659053 0.0019492508 -0.0025221412 -0.00017252569 -0.0065115648 -0.0022582856 0.001669628 0.0045950646 0.00819855 -0.0033745151 0.0079506366 0.0017638869 -0.0052687041 -0.0026612412 -0.0039034309 0.0030223143 -0.0024925356 0.001312316 0.0084644202 0.00089577958 0.0034788346 0.0012301769 -0.0024323645 -0.012263058 0.00086397876 0.00034084325 -0.00015294184 -0.0054164822 0.009563948 0.016410392 -0.0025154401 0.0022291041 0.011982581 -0.0077144406 -0.0062975846 -0.018386882 0.0050047063 -0.0037710324 -0.0024372879 -0.0026284296 -0.0093334829 -0.00031819305 -0.008641758 -0.0066252155 0.009608686 -0.0016968222 0.00079824979 -0.0053063673 -0.0003689733 -0.00014300735 -0.0012706118 -0.0030329723 0.0056006568 0.0031802768
ημερομηνία 0.00057527365 -0.011463231 -0.0051337401 0.012861776 -0.0086014336 0.0013464725 -0.006327312 0.0019365799 0.0065834452 0.0027767357 -0.0025583708 -0.0043616621 0.0020612369 0.0044527645 -0.0061722174 -0.0060681538 0.0096464017 -0.0044550402 -0.0049377666 0.0052073058 0.0073314086 0.007259205 0.00067638903 -0.0066442816 0.0016798597 0.00018461449 0.0077396301 -0.001801059 0.0016267876 -0.00022099839 -0.0036220043 -0.0053016185 -0.013734022 0.003133239 0.0018023012 -0.0036183016 0.0053001335 0.00043643077 -0.0003940801 -0.0027061321 0.0013443099 -0.0085078236 0.0031422805 -0.0058099553 -0.0055030361 -0.0053537106 0.0010035887 0.0034937512 0.0020636471 0.0051340992 0.010724896 0.0060785399 -0.0033497561 -0.0024752126 -0.015934225 -0.0012173882 -0.009480739 -0.0055920621 -0.01043398 -0.0045965943 -0.0013978119 0.00032554782 -0.0011119215 0.00031775102 -0.010584631 0.0086182607 0.0037320564 -0.0034492703 0.016639329 -0.008641649 -0.0045247995 -0.0015167604 0.015082931 0.012440952 -0.0091279149 -0.0042931908 0.0046886727 -0.0012081785 0.002679656 -0.0016334734 0.0047673825 0.00092081283 0.0019578515 -0.0053208414 0.014550088 0.0039163074 0.0039014623 0.0048873723 0.0055120434 0.0013929277 0.0043812054 -0.00068655185 -0.0027109093 0.0038942585 -0.0023018226 -0.0046122414 -0.0034505478 -0.0078572575 -0.0047843098 0.0031934606 -0.012689861 0.01162271 -0.0042615281 0.0064309519 0.0041412464 0.0045224605 0.00099232979 -0.0039778911 -0.0054435991 -0.0066313469 0.0013773656 -0.010502101 -0.0024050735 0.0030296575 0.0079384018 -0.0032079685 -0.0045452649 0.00432294 0.0095067779 0.0049448269 -0.00051908637 0.00066206005 -0.0047871107 -0.0059328047 -0.0023055181 0.0046103261 -0.0031480056 0.0048537101 -0.0050306972 0.0081797019 0.0052739969 -0.0021835612 0.0033330515 -0.0073498064 -0.0066571189 0.0065251156 0.009031496 0.0084939217 0.007720429 0.0081985723 0.0046825414 0.0050376072 0.0071299584 -0.0023278808 -0.0053614001 0.003762125 0.0023856841 0.0027320464 -0.00014165754 -0.0004721834 -0.0067536104 -0.0033968054 0.00080609747 0.0041909046 0.0081687784 -0.0023860249 0.0090409145 0.0023239499 -0.0013538748 -0.0035139476 -0.0018454442 0.0034432157 -0.0028340428 0.0028917794 0.0094775772 8.2407416e-05 0.0019894561 0.00467645 -0.0035168703 -0.011338184 -0.00025821489 0.00073976634 -0.0035215395 -0.008628848 0.01179076 0.017427206 -0.00024188431 0.0057668337 0.014216008 -0.0045297141 -0.0031739864 -0.021534167 0.0049647302 -0.0044637439 0.0014444861 -0.0032171889 -0.010629648 -0.0025322966 -0.0091030346 -0.0053809918 0.011277393 0.00035361527 -1.6670616e-05 -0.009159008 -0.00042977079 0.002700828 -0.001809829 -0.0039847828 0.002406494 0.0014345067
2231 0.00045577629 -0.0089307763 -0.0034291809 0.0078533925 -0.010334413 0.00032382167 -0.0061925002 0.00014013541 0.0054019829 0.0040540169 -0.0056381091 -0.0059603476 0.0014109296 0.0072095892 -0.0027258967 -0.0044435528 0.0058754981 -0.0061802692 -0.0047595603 0.0053839921 0.0052288901 0.0066165417 0.00038326447 -0.0044976822 -0.0016566799 0.00010194631 0.0046870462 -0.0027503162 0.0030111955 -0.0012684738 -0.0031360697 -0.0035940371 -0.011065505 0.0029186388 0.00095487648 -0.0016166365 0.0049104053 -0.0022473733 -0.0019150125 -0.0051998678 0.00061374495 -0.003276851 0.0047506192 -0.0052759857 -0.003220275 -0.0011738349 -0.00025138757 0.0019465066 0.0013295601 0.0054913675 0.0044364599 0.0042699901 -0.0028907987 -0.00037377665 -0.0089392271 -0.0019657833 -0.006345849 -0.0034713629 -0.007899574 -0.0062949504 -0.0020852278 -0.0028266078 0.00014246223 0.0019977619 -0.0078925155 0.0067615332 0.0030700769 -0.0014640482 0.010023823 -0.0081722029 -0.0020120165 0.00012270627 0.010954042 0.011395685 -0.0062811994 -0.0032401711 0.0012711027 0.0016781483 0.0016482414 -0.0020460151 0.0048497873 0.00048038177 0.0050640209 -0.0054798289 0.010192974 0.007002681 0.0019704574 0.0027396397 0.0038659642 0.0011455242 0.0035247663 0.0021020777 -0.0026826335 0.0037201506 -0.0014747632 -0.0032345997 -0.003545864 -0.0060428572 -0.0031421892 0.0038291747 -0.0072451187 0.0075222366 -0.0017604163 0.0049149534 0.0048187557 0.0021784932 0.0034005526 -0.0016810216 -0.0031097885 -0.0054160631 0.0012395533 -0.0096277241 -0.00059031363 0.002150588 0.0047967457 -0.0040306561 -0.0045378851 0.0021160936 0.0042160717 0.0019141771 0.00088281708 -0.00073385611 -0.00029066083 -0.003851935 -0.0017758928 0.0003888252 -0.0024644395 0.0029996955 -0.0036600437 0.0032755483 0.0044647469 -0.00099271885 0.0033498434 -0.0084668137 -0.002760689 0.0069447956 0.0060704239 0.0037886519 0.005077078 0.0098704388 0.0040797759 0.0043186513 0.0068424284 -0.0010040739 -0.0046289805 0.0042058616 0.003706638 0.0015175242 -0.0023613642 -0.0035494522 -0.0035425541 -0.001223749 -0.00050778443 0.0055975402 0.0087474147 -0.0023481031 0.0038101112 0.0010206888 -0.0046823835 -0.0046764677 -0.00069170113 0.0031197956 -0.001831554 -0.00059619395 0.010235542 0.00079181761 0.00056173315 0.0030319437 -0.0014177911 -0.011449913 -0.00046404469 0.0010189114 -0.0019747938 -0.004929828 0.0065827612 0.014189028 -0.0015217548 0.0019792791 0.009098649 -0.0036345469 -0.0057897107 -0.017749442 0.0028877389 -0.0036892246 -0.0018103174 -0.0048052967 -0.006518336 -0.0043669054 -0.0072365166 -0.004038889 0.0057553276 0.00040526045 -0.0025390771 -0.0037377996 -0.0010362938 -0.0012845047 -0.0021223077 -0.0017675635 0.0055568242 0.0015416684
Ιράν 0.0064246799 -0.016305979 -0.0079843132 0.017634695 -0.015636705 -0.0017170435 -0.0097141908 0.0011025149 0.0083293458 0.0050338772 -0.0071023945 -0.0083177863 0.0023212 0.01162459 -0.010279179 -0.0048685824 0.013143487 -0.010999979 -0.010209427 0.012345124 0.0084541263 0.010909738 0.0063971002 -0.012247704 0.0015391695 0.0052605895 0.011638028 -0.0085716695 0.0058518457 0.0028736501 -0.0070568994 -0.011796075 -0.020199876 0.0051463209 0.0052949889 -0.0071641724 0.0071592643 0.00033299919 -0.0015207742 -0.0055292808 -0.0024047294 -0.0085474383 0.0064099682 -0.01049017 -0.0057574082 -0.0059563336 -0.0027781941 0.0055134026 -0.0016959268 0.0044856318 0.012739551 0.010058291 -0.0017473672 -0.0028189081 -0.023129001 -0.004893221 -0.010840019 -0.0090064211 -0.01719258 -0.01184586 -0.0021838376 0.0012323926 0.00087680714 0.0035573232 -0.01239997 0.010713556 0.0047290777 -0.0041773138 0.024390701 -0.013645615 -0.0098935189 -0.0011171689 0.018351186 0.020591129 -0.010378646 -0.0089860978 0.0040535443 -0.0029946915 -0.00071408181 -0.00059249043 0.0091390228 0.0036754478 0.0083597228 -0.0052405992 0.019757807 0.01143259 0.0074793869 0.0057398574 0.0037939122 0.00053478725 0.0094603859 -3.9442239e-05 -0.0078033796 0.0066931578 -0.0034162526 -0.0093322545 -0.0051040561 -0.012432505 -0.0057710255 0.0061063971 -0.017475801 0.017607119 -0.010047957 0.015683232 0.0051691332 0.0060304436 0.0046674865 -0.0022484849 -0.0059331283 -0.0076618679 0.006458296 -0.017033339 -0.0068227667 0.0070428103 0.014022192 -0.0054865186 -0.0040163957 0.001941493 0.014151255 0.0066172387 2.4436671e-05 -0.00077782443 -0.0060155974 -0.0089021903 -0.00082080485 0.0023862 -0.0054834001 0.0036713139 -0.0091808336 0.010628753 0.0071393913 -0.0021102882 0.0051246532 -0.011624039 -0.011430634 0.012410393 0.014010088 0.012466697 0.011309704 0.018849041 0.0054601296 0.0052368324 0.011781977 0.00010489511 -0.0080606006 0.0045492086 0.0061070826 0.0022426033 -0.0021637224 -0.0031915167 -0.0070604868 -0.0054312823 0.0050594984 0.010291614 0.012568381 -0.0091655487 0.011461321 0.00085027673 -0.0025935099 -0.0061557526 -0.0061316718 0.0082622627 -0.0041914275 0.0021330332 0.016605737 -0.0037805932 0.00079701102 0.0032812834 -0.0082183359 -0.019523149 0.0035564194 0.0041699791 -0.001214552 -0.011478431 0.015703548 0.026319986 -0.0040374827 0.0074105267 0.02211483 -0.0068926141 -0.0071385419 -0.033537708 0.011667376 -0.0054927375 -0.0018403459 -0.0027238855 -0.013573434 -0.0042285919 -0.01675323 -0.0087159453 0.01358548 -0.0012353313 -0.00053413346 -0.014045035 0.0013365111 -0.00032451213 -0.00012544628 -0.0016719524 0.0090981405 0.0035164035
τις 0.0028918965 -0.013319735 -0.005289637 0.014821596 -0.012256247 -0.0021888053 -0.0058747241 9.5352894e-05 0.005745485 0.0016352689 -0.0053799804 -0.0079761427 9.7710326e-05 0.008756387 -0.0094044767 -0.0049671531 0.010546293 -0.0069149481 -0.0099533899 0.01080339 0.0097886426 0.0077124881 0.0030060248 -0.0077968049 7.55466e-06 0.0013385914 0.010016346 -0.0051912582 9.7099786e-05 0.0028277426 -0.0019820221 -0.0071276682 -0.017861459 0.00082208193 0.0059481305 -0.0038932357 0.0089186616 -0.00091112737 -0.0035256199 -0.0069061178 -0.0010596041 -0.008096681 0.0040083285 -0.0057994435 -0.0039904248 -0.0065640542 -0.00020702064 0.002292318 -0.0010784528 0.0065096463 0.0110059 0.0090795271 -0.002012867 -0.0039918236 -0.017283546 -0.0056261425 -0.011116697 -0.0077309292 -0.012953612 -0.0086297654 -0.0029325169 -0.0023402208 0.0014505101 0.00018667837 -0.008199621 0.0070517049 0.00095443369 -0.0012003764 0.016928451 -0.010171012 -0.0056358147 -0.0024774289 0.013755155 0.013898317 -0.010687138 -0.0039021021 0.0060524154 -0.003476724 0.002517957 -0.00220161 0.0071584713 0.0021505151 0.0050570061 -0.0043245582 0.013868032 0.0067350641 0.0082528275 0.0028000684 0.0057074744 0.0006557703 0.0034705203 0.00010084239 -0.0070287995 0.0058230958 -0.001270234 -0.0057543395 -0.0045747808 -0.010196694 -0.0048380527 0.0055232528 -0.010206311 0.011194692 -0.0086739101 0.009243913 0.0017469325 0.0033976403 0.0013989968 -0.003211634 -0.004021938 -0.0044712559 0.0048204456 -0.015993457 -0.0034264142 0.001027939 0.0099287806 -0.0058147633 -0.0049889907 0.001309154 0.01117165 0.0055823363 0.0014539289 -0.0036087509 -0.0016659305 -0.0083249286 -0.00067932549 0.001155441 -0.0058574188 0.0033517098 -0.0070133721 0.0071696015 0.0050071706 -0.0029332733 0.0034246426 -0.011348396 -0.0093980078 0.012624363 0.011094178 0.011265945 0.0070233252 0.010588504 0.0055194716 0.0056850435 0.0064461008 -0.00091493991 -0.0089396993 0.0030815825 0.0054936083 0.0012959043 -0.0028160363 -0.0036757353 -0.0056599476 -0.002173441 0.0023566494 0.0097009968 0.009197453 -0.0032952414 0.010364152 0.0024965715 -0.0048317742 -0.0025079874 -0.0049435529 0.0036090075 -0.0037299288 0.0019749727 0.012616738 -0.0032571857 0.0026644659 0.00046372492 -0.0038229777 -0.015820419 0.001878746 0.00010209201 -0.0039499979 -0.0089189624 0.0086473525 0.01817091 -0.0020913957 0.0068665002 0.015138911 -0.0050969389 -0.0053681708 -0.022600165 0.0079791201 -0.00028057236 0.00027093579 -0.0027696341 -0.0083655268 -0.0016301021 -0.012571592 -0.0070525296 0.010790774 -0.0013198409 0.0012420522 -0.0076954211 0.0037530654 -5.0153056e-05 -0.0027681321 -0.0015961425 0.0049198503 0.0011187348
Συμβουλίου 0.0034069566 -0.0066577038 -0.0056271409 0.0075866082 -0.0079319738 -0.0025309289 -0.0045007844 0.0021552215 0.0034670813 0.0032639944 -0.001915616 -0.0019546987 5.1868716e-05 0.0033894882 -0.0028622921 -0.00012768942 0.0060649994 -0.0030208619 -0.0028832548 0.0044726403 0.0029118084 0.0020805097 -0.00027170524 -0.0035010765 0.0013042918 0.0004232208 0.0043146708 -0.0046913554 0.00095073535 0.0029483659 -0.0021686428 -0.0026472057 -0.0096568046 0.0023786498 0.0023919386 -0.0028822741 0.0030507999 -0.00028656519 0.0009279736 -0.0037016347 -0.00033772993 -0.0049165427 0.0033493002 -0.0041661183 -0.0041490155 -0.0012836878 -0.00022660776 0.00028257366 -0.00048612527 0.0024440254 0.0080110235 0.0049948483 -0.0017033984 -0.0007700721 -0.0083445506 -0.00063623214 -0.0043790797 -0.0066843731 -0.005318658 -0.0035407597 -0.0026349679 -0.00085340935 -0.00066202634 -0.0013189031 -0.0053930455 0.0074778451 0.0022702871 -0.0005338238 0.0071938187 -0.0068788091 -0.0016243909 -0.0013861902 0.0077881915 0.0082921125 -0.0025263117 -0.0038760446 0.0048287818 -0.0030929735 0.002886832 -0.00037670814 0.0063263415 -0.0012207726 0.0038389233 -0.00063688232 0.0085823294 0.0026840419 0.0050079627 0.00034028137 0.0026946971 0.0033096641 0.0055984943 -0.0010257439 -0.0022766294 0.00027279215 0.0006041755 -0.0058014817 -0.00086409197 -0.0071011907 -0.0027267602 0.0038418574 -0.0071039707 0.007051629 -0.0050865435 0.0050489483 0.00057457713 0.004369522 0.0037892156 -0.0031519453 -0.0053836722 -0.0056449794 0.0034231318 -0.010313736 -0.00020996976 0.0044589438 0.0041209492 -0.0001197063 -0.0038771736 0.0037634301 0.0066194483 0.001703092 0.0018601782 -0.001883449 -0.00081937824 -0.0033670147 -0.0036597969 0.0037587665 -0.00030983757 0.00068639219 -0.0033462839 0.0026710967 0.0037230123 -0.0014989512 0.0044143568 -0.0044901115 -0.0039131814 0.0037775654 0.0062208376 0.0074471757 0.0044056522 0.0082242563 0.0028121136 0.0031325622 0.0025707497 0.0010916061 -0.0041029211 0.0023587334 0.0028648165 -0.0014466555 0.00074740325 -0.002178482 -0.0012570056 -7.7385499e-05 -0.00096052483 0.0037488793 0.0080776615 -0.0028811982 0.0026856456 -0.0017834788 -0.002316721 -0.00073368289 -0.0031342104 0.0033829708 -0.0021054326 -0.0012339277 0.0068716877 0.00040629564 -0.00025388415 0.003031353 -0.0024356523 -0.0090011265 0.00017227032 0.0018566158 6.6613269e-05 -0.0034983717 0.0069339825 0.012336611 -0.00087062281 0.0014757743 0.010658511 -0.002793272 -0.0033259341 -0.015217041 0.0028490792 0.00051715283 0.0021927617 -0.00046780857 -0.008032999 -0.0034771978 -0.0049746851 -0.0060262992 0.0053903549 -0.00056730473 -0.0024321994 -0.0046873516 0.00022979097 0.00097623689 5.2630698e-05 0.00029201477 0.0015125971 -0.00094369939
σε 0.0024551244 -0.010082209 -0.0018866988 0.0076048141 -0.011013144 0.00024892908 -0.0045275628 0.0036078203 0.001376296 6.9087007e-05 -0.003681446 -0.0041535795 0.0022609937 0.0035120591 -0.0031442198 -0.0031531353 0.0070755947 -0.0033794951 -0.0055892803 0.0054589105 0.0068913116 0.0040420457 0.00087508908 -0.0044357572 0.0011843867 0.001412547 0.0052564 -0.0035488608 0.0043100449 0.0032357012 -0.0052268165 -0.0064571025 -0.013875664 0.0013253698 0.0018383873 -0.0022858349 0.0044950796 0.0019589183 -0.0023353652 -0.0045342115 -0.00061749358 -0.0038201415 0.0060782083 -0.0072898981 -0.0057456661 -0.0036260106 -0.00079390919 0.0042617661 8.6915024e-05 0.0032926511 0.0060264915 0.0042725699 -0.0010629653 -0.0015042459 -0.013064703 -0.0019882682 -0.0069402382 -0.0059461077 -0.0086549493 -0.0072172196 -0.0029919511 1.6444659e-05 -0.00081513246 0.00010180961 -0.0097050136 0.0082742376 0.0050442372 -0.0010214708 0.0117098 -0.0093060145 -0.0060896152 -0.0025998824 0.012196283 0.0098139355 -0.0086159632 -0.0040350328 0.0033614654 -0.0013963401 0.0022306561 -0.0033373241 0.0054931156 0.0031592925 0.0016376262 -0.0021185675 0.013678343 0.0057447953 0.0068952437 0.0042315857 0.0024307051 0.003501235 0.0044270931 -0.00093996921 -0.0063155456 0.0044353432 0.00063823367 -0.0082694814 -0.002708975 -0.0086375382 -0.0022422147 0.0050595142 -0.010631494 0.010003831 -0.0043057464 0.0091065131 0.0029318223 0.0027829099 0.0042870985 -0.0036560197 -0.0019514932 -0.0023951787 0.0036349781 -0.008691119 -0.0017563868 0.00062404474 0.0079305703 -0.0039675552 -0.00290401 0.005072746 0.0074901576 0.0051718056 0.0012446218 -0.0017016197 -0.002196572 -0.0048172399 -0.0036139064 0.0010275529 -0.0014267772 0.0025908165 -0.0018927057 0.0065887128 0.0026661078 0.0003615281 0.0021591671 -0.0097194575 -0.006211326 0.0080381008 0.0063391724 0.0089395158 0.0038622422 0.011892012 0.0022234276 0.0043729823 0.0070057637 0.00041266409 -0.0044764159 0.0030084371 0.00246028 0.00018047515 -0.0037069425 -0.00060735276 -0.0063392622 -0.0042991103 -0.00053530151 0.0067331651 0.0061270031 -0.0033249543 0.0063029216 0.0028193649 -0.0045510451 -0.0037821599 -0.001288432 0.0033809729 -0.00078551285 -0.00067671749 0.011962949 0.0004259726 0.0027224696 0.00023619857 -0.0063222079 -0.0091825835 0.001938967 0.0034037058 -0.0033089742 -0.0084435726 0.010097442 0.012581986 -0.0020120149 0.0044250018 0.0091783116 -0.0051134406 -0.006242604 -0.018330516 0.0074861934 0.00011309575 -0.0027196 -0.0040504211 -0.0098519837 -0.0044143633 -0.010384367 -0.0040017683 0.010854195 -0.00022983841 -0.0009935553 -0.0055676368 0.0024750931 -0.0013331502 7.9973133e-06 4.382692e-05 0.0066713719 0.0018668282
Η 0.0024215737 0.0011647524 -0.00054256734 0.0034111124 -0.00072767481 -0.0021864085 -0.0010416725 0.0016283971 0.0016256993 0.0023646299 0.0011804408 -0.0026091493 0.0016677576 -0.00015443892 -0.0016017085 0.001718477 0.00038233644 -0.00084771891 0.00044148354 0.0027999124 0.0011021179 0.00068693701 0.0013472489 -0.0023789182 -0.00018570125 0.0011474384 0.001899994 0.00012691619 1.294218e-05 0.00068677956 0.0018517423 -0.001911986 -0.0019665228 -0.00083619123 0.0012341284 0.00010275988 -0.0015729578 -0.00026077387 -0.00080666196 0.001696439 0.0016564664 -0.00051361858 -0.0014949162 -0.0011303137 -0.00091612205 0.0011844918 -0.00099942286 0.0026148981 -0.0008251156 0.00024869354 -0.00016862169 -0.0017473055 -0.00026226084 0.0014719918 -0.0014326461 -8.9171321e-05 -0.0025585936 -0.00068270683 -0.0027072502 0.00087824935 -0.00044429133 0.00046515799 0.0018599998 -0.0012129005 -0.0017400233 -0.00070239312 0.0025191843 0.0022456208 0.0006097958 -0.0032423751 0.0013059239 0.0017348701 0.00049284485 0.00035922611 0.0008233274 -0.0023243956 0.0024005389 0.0022130564 0.0020528701 0.0021406657 0.00020296336 -0.0006377598 0.0026520442 -0.0013067981 0.002075684 -0.0014914786 -0.00063697144 0.0021356007 7.3569019e-05 -0.00014449895 0.00083403377 0.0019645686 -0.0021310009 0.0017481364 -0.0019682152 0.00056765723 -0.0014529155 0.0015650351 -0.0014757286 0.00050583755 -0.0034251416 0.0033317464 -0.0029269268 0.0010620187 -0.00092865125 -0.001090667 0.001383129 0.0011736365 0.0015201031 -0.0012332755 0.00093526201 -0.0019754795 0.0020947075 0.002584565 0.0011173491 -0.00089778466 -0.0024649031 -0.00075647619 -0.00026628652 0.0012133498 -0.00021794095 0.00058009871 0.0017191345 0.0014488567 -0.00038397367 0.0020357238 -0.0018039534 -0.0021527656 -0.00060178444 -0.0003625449 0.0015031059 0.0023803602 0.0027029356 -0.0010620984 0.001234118 0.0023886673 0.0009718634 0.0005089374 6.6964465e-05 0.0034674683 0.00061621651 0.0023505255 -0.0017261303 -0.00024881415 -0.0014830816 -0.0013209396 -0.00039872716 0.00029489174 -0.0020250713 -0.00022197071 0.0015592623 -0.0012252463 -0.0015742424 0.0018516576 0.0020177297 -0.00024350826 0.0010001864 -0.0012485178 0.0021868614 -0.00079995603 0.0018402671 0.0026778486 0.00091125973 0.0023558715 0.0016477451 0.0012224852 -0.0012243587 0.0024495907 -0.00082867092 0.001003733 0.0016177839 0.0013799652 -0.0011083761 -0.0025749104 0.0021889119 0.0034889642 -0.00043109883 -0.0020005568 -0.0012460387 0.0018998525 0.0016271032 -0.0006034596 0.0014094349 0.0016530163 -0.00084446452 0.0021370591 -0.00080293103 0.00079141109 -0.0028649757 0.0014139713 0.0032449353 0.0015567938 0.0010380188 -0.00091886008 -0.00010778412 0.0023720979 -0.00089586066 0.0014844928 -0.00056143303 9.0556445e-05
τα 0.0047920966 -0.0083700139 -0.0039760387 0.0075967642 -0.0093592349 -0.0025661634 -0.0052744825 -0.00087669637 0.00069927383 0.0004785558 -0.0017645147 -0.0042524566 9.5846393e-05 0.0067744595 -0.0070014936 -0.0032787519 0.00713271 -0.0055885962 -0.0068310257 0.0032866928 0.0040400047 0.002515519 0.0035711632 -0.006131399 -0.0018252782 0.0021651867 0.0058111381 -0.001551796 7.3263429e-05 0.0021825847 -0.0047702952 -0.0044270935 -0.012126545 7.0846239e-05 0.002748847 -0.00060500973 0.0039844541 -0.0017468822 -0.00049070467 -0.0040845191 0.00090282119 -0.0061847242 0.0039242399 -0.003782867 -0.0017782548 -0.0029890968 0.0010636339 0.0030269481 0.0017808143 0.0018916314 0.007621007 0.005459758 0.00023888286 -0.0016044145 -0.01044432 -0.0044921413 -0.006596406 -0.0077068703 -0.0082756449 -0.0060736057 -0.0013535743 0.00046512153 0.0016729832 0.0008703919 -0.0050520753 0.0053135767 0.0033033486 0.00091207714 0.013225475 -0.0094761746 -0.0030335286 -0.0022502751 0.011509459 0.010314194 -0.003925838 -0.0018616916 0.0016524931 -0.0011978303 -0.000303815 -0.0021210674 0.0031610895 0.0032572998 0.0032061981 -0.0040196553 0.011421287 0.0058356673 0.0025987853 0.0045949263 0.0037389169 0.0012662982 0.0044665555 0.00069491303 -0.0021984894 0.0020340995 -0.00033138544 -0.0067402809 -0.0056772432 -0.0040664109 -0.0017848248 0.0057382584 -0.0092228306 0.009027143 -0.0047053737 0.0083429255 0.0013293412 0.00060088019 0.0029642617 -0.0027004611 -0.0045336694 -0.0047008614 0.0043116137 -0.0095894262 -0.0014854984 0.0035714055 0.007360308 -0.0038966886 -0.001583092 0.0021517249 0.0061147758 0.0046608648 0.0012692059 -0.0036723241 -0.0022981435 -0.0024720684 -0.00068085641 0.00086988381 -0.0032259906 -0.00026004072 -0.0041693533 0.005563261 0.0030084213 -0.002840006 0.0011281671 -0.0040496658 -0.006304068 0.008827989 0.0060869865 0.0086662257 0.0058863116 0.0078394832 0.003028037 0.0033683686 0.0066167079 -0.0019990641 -0.0068725906 0.0054769539 0.0053838892 -0.0014286521 -0.003826895 0.0010455499 -0.0052349963 -0.0048607541 0.00021507699 0.0058453279 0.0076352996 -0.0038538338 0.0036361893 0.0023547327 -0.0034667857 -0.0036665183 -0.004592394 0.0029719414 -0.001327295 0.00049352442 0.0074130208 -0.00079909683 0.0031646416 0.00059041794 -0.0030337961 -0.0074638929 0.0020500661 0.0025669606 -0.00023722347 -0.0064796368 0.0049008676 0.014195463 -0.00035045369 0.005499403 0.010578948 -0.0060944082 -0.0025244171 -0.015994338 0.0059530102 -0.0034483792 0.0015787552 -0.0028478187 -0.0075949649 -0.0041283257 -0.0078952685 -0.0035690041 0.0069856383 0.0008643078 0.0015369041 -0.0079967659 0.00029139861 -0.0020560524 -0.0010417808 -0.00064970605 0.0053617381 2.3707239e-06
ότι 0.0020437965 -0.01396398 -0.007809896 0.012214318 -0.012882464 0.0011747098 -0.0077089253 0.00056981161 0.0065894038 0.0038911931 -0.0056469571 -0.009134897 0.0016249921 0.0065537808 -0.0063444162 -0.0067736539 0.010344405 -0.0074458444 -0.007276406 0.0092206327 0.0072625927 0.010313634 0.0038117929 -0.0087196827 -0.00040253505 0.0020619205 0.0092647085 -0.0037294594 0.0046985676 0.00051146746 -0.0048591569 -0.007838076 -0.018501526 0.001396416 0.0055287322 -0.0027222589 0.0087903598 -0.002138667 -0.0014019576 -0.0063338028 0.0012638462 -0.0084428368 0.0066097789 -0.0065714023 -0.0057384768 -0.0057946462 0.00082546723 0.0016975845 0.0022824213 0.0067439578 0.011914711 0.0091613159 -0.0051377709 -0.0014494322 -0.016330551 -0.0054651471 -0.0094826892 -0.0097949579 -0.013264704 -0.0069067245 -0.004139334 -0.0016562758 0.0015844734 0.0028575389 -0.010778378 0.010288541 0.0041914172 -0.0025811673 0.015051655 -0.014537203 -0.0081151929 -0.0020080018 0.017265912 0.018420063 -0.010944404 -0.0066209137 0.005498122 -0.00010607405 0.0018563238 -0.0022011681 0.0061427304 0.0033357893 0.0044709006 -0.0050146421 0.017146753 0.0065981131 0.0045573432 0.0049070655 0.0024392561 0.0034085764 0.0047439914 -0.00040706014 -0.0043813558 0.0045470684 -0.0024263337 -0.0104166 -0.0070632114 -0.010704236 -0.0058579729 0.0071879234 -0.013161923 0.014429706 -0.0056087915 0.012264741 0.0058732424 0.0042813262 0.0032343024 -0.00045671713 -0.0061609223 -0.006251669 0.0049670585 -0.013853491 -0.0033332666 0.0030374341 0.0082154293 -0.0041102357 -0.0018447752 0.003903483 0.0095152473 0.0027861174 0.00078683498 -0.0018127861 -0.0042413995 -0.0081043895 -0.0023064709 0.0029697858 -0.0044917166 0.0047449097 -0.005871925 0.010988102 0.0046043685 -0.0002909035 0.0033238758 -0.010212755 -0.0059295469 0.01224126 0.011178177 0.0085736159 0.0069483062 0.011997866 0.003319198 0.0052625956 0.0079236431 -0.00015171844 -0.007816053 0.0045107994 0.0058653369 0.0016848351 -0.0039528636 -0.003538995 -0.0062870164 -0.0022333718 0.0003760902 0.0077442448 0.011653611 -0.0078376848 0.0071068583 0.00054060388 -0.0013944168 -0.0028649741 -0.0020087529 0.0062769512 -0.0034525159 0.0043586544 0.014039079 -0.0033202732 0.002280147 0.0039430778 -0.0063847443 -0.014338065 0.0028716943 0.0016339113 -0.0034743312 -0.0097276298 0.010405054 0.021291053 -0.0023780963 0.0069310213 0.017344994 -0.008053327 -0.0070982748 -0.024749963 0.0063903155 -0.0030557653 0.002091032 -0.0047841547 -0.012666858 -0.0031520554 -0.013337513 -0.0056543555 0.01030836 0.00044092105 -0.00064371538 -0.0071177129 0.0011436509 0.0012787341 -0.0020624716 -0.0029868474 0.0047270912 0.0020038285
κατά 0.0025540332 -0.01117917 -0.0029400359 0.011474011 -0.012037587 -0.00059224747 -0.0057187737 0.00022744108 0.0060557062 -0.000414551 -0.0046656104 -0.0049591088 0.0020542496 0.00615991 -0.0043294672 -0.0057522296 0.0094164256 -0.0044039893 -0.0051917532 0.0086643584 0.0067634466 0.0088874372 0.0039469525 -0.0092750778 -0.0017024891 0.0015526843 0.0051728543 -0.0024342493 0.001617105 0.0020484307 -0.0028188776 -0.0041715889 -0.01280391 -0.00021197599 0.0024202783 -0.002171247 0.0063823024 -0.0010054848 -0.0011549639 -0.0049933894 0.0019394713 -0.0077590686 0.0033412992 -0.0066126199 -0.0057977904 -0.0027070746 0.0013913704 0.0044043744 -0.0024567752 0.0053638602 0.0090563092 0.0062754201 -0.003447688 -0.0021022451 -0.016160186 -0.0052962801 -0.0094479537 -0.0056473678 -0.012881708 -0.0051693185 -0.0020966299 0.00096155517 0.00077151903 -0.0011840364 -0.0081119295 0.0078596771 0.0015080135 -0.00088039885 0.012597141 -0.0086261341 -0.0076791719 0.00066596991 0.01324258 0.014567086 -0.0069761183 -0.0051252586 0.0038839013 -0.002746067 0.0021630153 0.00020003667 0.0045186835 0.0033766453 0.0059030489 -0.005309599 0.014623035 0.0071209334 0.0060222507 0.0015114007 0.0035904578 0.0016468231 0.0027484335 0.0016403751 -0.0068742712 0.0035896935 -0.0029575429 -0.0084693814 -0.0021062631 -0.0069274642 -0.0007328302 0.0040279101 -0.0098806191 0.011066263 -0.0055476758 0.0090908445 0.004424951 0.0057150386 0.0029205333 1.6402291e-05 -0.0032833535 -0.0051189559 0.0038355102 -0.012221505 -0.0055292384 0.0053035473 0.0078957975 -0.0029720091 -0.0032532064 0.002296732 0.0072032874 0.0024558264 0.0023833725 0.00010210031 -0.0050169509 -0.0043511344 0.00051215495 0.0046890876 -0.0059439838 0.0038668693 -0.0032107991 0.0048253518 0.0028770126 -0.002687261 0.0039716586 -0.006824662 -0.0076774764 0.010907656 0.0070119509 0.0095642479 0.0065285526 0.012802355 0.0033056627 0.0021678223 0.0054190611 0.0010511806 -0.0065231733 0.0052053714 0.0035186103 0.0011806092 -9.9074685e-05 -0.0036269496 -0.0047621746 -0.0022963188 0.0020120488 0.0082189692 0.010166886 -0.0021126908 0.0099966172 -0.00010033776 -0.0009078795 -0.0040592793 -0.0050250664 0.0059117214 -0.0017716609 0.00030820095 0.013587506 -0.0022246139 0.003125398 0.0021846502 -0.0041292049 -0.013268753 -2.7327271e-05 -0.00052605668 -0.0027022436 -0.0061499723 0.011685239 0.015273278 -0.0034607979 0.0059931809 0.012625798 -0.0063316897 -0.006722596 -0.019066926 0.0067626815 -0.0042103897 -0.0018792142 -0.005442657 -0.0099982107 -0.00062382879 -0.010030046 -0.0060925963 0.0080894288 -0.0037921006 -0.00017663566 -0.0074420096 0.0020587465 0.0021622565 0.0012349666 -0.0021838783 0.0050777118 -0.00049461902
Ο -0.00016355651 -0.0072239619 -0.0034499031 0.0083873691 -0.0083797909 -0.0028849272 -0.0047508455 0.001642834 0.0046587279 -0.00083636696 -0.0018967399 -0.0019031095 0.0035817486 0.0025233107 -0.005024178 -0.0022277504 0.006799743 -0.0030809934 -0.0045323456 0.0020295877 0.0019417191 0.0039978283 0.0006358244 -0.0058180341 0.0017908073 0.00068757625 0.0019652548 -0.0038266038 5.4158809e-05 -0.001658192 -0.0037991172 -0.005186874 -0.0081468914 0.0029105786 0.0011208298 -0.0040234909 0.0035538566 0.001235672 -0.0013067897 -0.0022650927 -0.00059896451 -0.0056147487 0.0045489883 -0.0017595767 -0.0027160365 -0.003147275 -0.0013986715 0.00163213 -0.0002697343 0.0021415781 0.0073565398 0.0028980833 0.00028585162 -0.00041339741 -0.0088948868 0.00063001993 -0.0060844906 -0.00326308 -0.007899831 -0.0017540088 0.00057968212 0.0010492398 -0.00037177917 0.002084743 -0.0045893979 0.0043372293 0.00086327537 -0.00036870653 0.005855849 -0.0050202771 -0.0050031706 -0.0024967485 0.0060486007 0.0056413091 -0.0045571863 -0.0052014817 0.00015381428 0.00016128299 -0.00079229701 0.00048792196 0.0022395598 -0.0013769461 1.7113871e-05 -0.0031561558 0.0078686038 0.0043568104 0.0041142027 0.0030118397 0.00096602377 0.0026222602 0.0026966811 0.0013172752 -0.0027607963 0.0022864325 9.6489181e-05 -0.0013614149 -0.0013671675 -0.0035089543 -0.0013354254 0.001985142 -0.0047136084 0.0046277083 -0.0049267155 0.0072234017 0.003789471 0.0035459751 0.0018730538 -0.00064634805 -0.0014223523 -0.0028922409 -0.00040893274 -0.0089981332 -0.0046964018 -0.0006716905 0.0066057649 -0.0025487032 -0.003189394 0.0026909935 0.0069480408 0.0010197174 0.0010601709 0.00060010731 -0.00043769099 -0.0020895808 -0.0018079273 0.0026483578 -0.0023245418 0.0037277052 -0.0049495446 0.0060695442 0.002529142 -0.0024684116 0.0017835039 -0.0040646764 -0.0050210124 0.0054393876 0.0053285137 0.0025643406 0.0020161944 0.004390663 0.0026032983 0.0020434328 0.0038012518 -0.0028030055 -0.0060575572 0.0011698654 0.0013398472 -0.0015676375 0.00091678934 0.0011917498 -0.0025869654 -0.00079694402 0.0025403933 0.0037259629 0.0075343051 -0.0012372991 0.0031697624 -0.0018633486 -0.0031969675 -1.8076002e-05 -0.0020405941 0.0035789164 0.0014101904 0.0033939462 0.0056601749 0.00091179839 -0.0015360054 0.0016735892 -0.0046235211 -0.0073860907 0.0033822914 -0.0013832279 -0.0021595331 -0.0030643248 0.0062279068 0.01127972 -0.00097011984 0.0029133332 0.0088997018 -0.0026912531 -0.0013245232 -0.01255201 0.0020855104 -0.0032174299 0.001101693 -0.0030414001 -0.0041436735 0.00057484995 -0.0081389798 -0.0049072746 0.0039972882 0.00076036179 -0.00010906118 -0.0035085627 0.0010077581 0.00033825796 -0.002753299 -3.7697078e-05 0.0015211772 -0.0003512406
έχουν 0.0024266737 -0.0086929947 -0.0057402579 0.0063944128 -0.00734897 0.0017146682 -0.0051064868 0.0029662601 0.0036774667 0.0024836133 -0.0030407007 -0.0038300427 0.001895799 0.0064662741 -0.005183931 -0.0054394389 0.0050478308 -0.0067696641 -0.0049237749 0.005043033 0.006168541 0.0043804934 0.0046729888 -0.006726502 0.00011042665 0.0010130949 0.0070764385 -0.0015807807 5.8554622e-05 0.00073027174 -0.002709937 -0.0063213357 -0.0091618011 0.0022634217 0.0038832866 -0.0023271737 0.0032541191 -5.6063793e-05 -0.00032915108 -0.0029939492 -0.00051672506 -0.005984758 0.0027345701 -0.003717486 -0.0021084661 -0.0059974436 -0.0011616434 0.00080783875 -0.0002888389 0.0032510443 0.0060420134 0.007243759 -0.0027062644 -0.0008333163 -0.011454417 -0.003248987 -0.0059431535 -0.0075995894 -0.010223974 -0.0068193278 -0.0025137202 -0.0020354344 -0.0027676118 0.00089822843 -0.0057652513 0.0049414136 0.0049383636 -0.0033264374 0.011078277 -0.0073607732 -0.0060963631 0.0012252193 0.010081356 0.012397734 -0.0069674612 -0.0051697851 0.0048511107 -0.0013848504 0.0020486682 -0.0035256397 0.0057254722 -1.0779713e-05 0.003257358 -0.0011980503 0.0085396254 0.0062686251 0.0037516146 0.0010908635 0.0049740938 0.0017011904 0.0056972383 0.0005275163 -0.0049102893 0.0012748138 0.0011193248 -0.0040971721 -0.0014059489 -0.003441304 0.000226224 0.0038237581 -0.0092544993 0.0093174502 -0.0026661118 0.0067234542 0.0043345857 0.0043311385 0.0041560768 -0.0013287109 -0.0055434993 -0.0025412564 0.0035303778 -0.0095745847 -0.003169768 0.0040739635 0.0063538705 -0.0018088944 -0.002953833 0.0045644012 0.0045193709 0.0012540682 0.0022028692 -0.00064211502 -0.0050190534 -0.004230815 -0.00150665 0.00025297722 -0.0034639398 0.00079110055 -0.0037367425 0.0044892747 0.0044787633 0.0010862957 0.0023089605 -0.0077041127 -0.0058816294 0.0078424346 0.0083334055 0.0063852714 0.0073721856 0.0070561552 0.0030698506 0.0020421881 0.0046871505 -0.001695383 -0.0049717114 0.0023475713 0.0057618935 0.00093355001 -0.0026104299 -0.0013157569 -0.0059986082 -0.0024963336 0.0017686596 0.003063991 0.0096287793 -0.0020205348 0.0049507339 -0.001824555 -0.003291857 -0.0044585923 -0.005346905 0.0059848507 -0.0008577822 0.0010976797 0.011029725 0.00097856275 0.001094566 0.00370219 -0.0038032525 -0.010644799 0.0013038206 0.00041085455 -0.0037433235 -0.0070252642 0.0054519293 0.014577121 -0.0033224365 0.0055337846 0.012474732 -0.0051807836 -0.0014042855 -0.018530278 0.005424947 -0.0019739631 0.0010478335 -0.0049023852 -0.0057375557 0.00027376603 -0.008001267 -0.0038856277 0.0062024696 -0.0006870025 0.001383296 -0.0065292967 0.00079205883 0.001643872 0.00024246944 -0.0028060072 0.002322566 0.0002213504
Συμβούλιο 0.0039155744 -0.0084063308 -0.0063735051 0.0091051394 -0.0076811295 -0.0030636471 -0.0048432704 -0.00059871061 0.0047655408 0.0034369584 -0.0022117561 -0.0043432689 0.0012784926 0.0074233138 -0.0063286256 -0.0026067188 0.0087766387 -0.0049936622 -0.0083078463 0.0081291003 0.0074288128 0.0070091798 0.00035449502 -0.0045278561 -0.00073833688 0.00044416753 0.0073546492 -0.0027198156 0.0027889132 -0.00087090139 -0.0051351292 -0.00360519 -0.013194239 0.0020275251 0.00039286519 -0.0034407659 0.0061229873 0.0019757936 -0.0028834781 -0.0030965069 -0.0022370543 -0.0047552986 0.0020564701 -0.0043485807 -0.005348736 -0.0050704489 -0.0016827106 0.0039219782 0.0016677643 0.00094063574 0.006019203 0.0057675662 -0.0046668001 0.00041036811 -0.011660354 -0.0052019511 -0.0067717694 -0.0065829875 -0.0096178856 -0.0038090884 -0.0031326227 -0.00049882167 -0.0022235161 0.00074582343 -0.0088410852 0.0085820546 0.002614137 -0.003564975 0.012684144 -0.010807334 -0.0063133729 -0.0020171481 0.01033938 0.01251183 -0.0047771437 -0.0022755708 0.0050400575 -0.00072888518 -0.00021571392 -0.00096893054 0.0075869574 0.00023659789 0.0036554299 -0.0045852708 0.010378764 0.0074404459 0.0057335491 0.0019600692 0.0041200318 0.00067163655 0.0015845333 -0.0017438976 -0.0024263174 0.0014786947 0.00050326134 -0.0071828612 -0.0020927552 -0.0082200766 -0.0025590416 0.0069405772 -0.0073784967 0.0085960459 -0.0050075017 0.0057149646 0.0012051432 0.004451918 0.0045119622 -0.00031520121 -0.0047548669 -0.0036598565 0.00055431691 -0.012884904 -0.0045113908 0.00189732 0.008954471 -0.0012004954 -0.0041596191 0.0035593512 0.0093470067 0.0055491747 -0.0017863256 -0.00064025243 -0.0029308745 -0.0040964647 -0.0029852535 0.001694861 -0.0048910812 0.0017385589 -0.002438548 0.0078842836 0.0035035566 -0.0035126503 0.0032797353 -0.0095929224 -0.007607365 0.0094747562 0.0090598939 0.0059719617 0.0064419867 0.010694883 0.0047837258 0.00561349 0.0065778978 -0.0016595636 -0.0066655464 0.0010857604 0.0040165377 0.0018892151 -0.0036935487 -0.0013508046 -0.005043305 -0.0016825687 0.0014224625 0.0071999324 0.0067117224 -0.0059071938 0.0080529675 0.0027575751 -0.0017051507 -0.0018290015 -0.004902639 0.0045817946 0.00046285708 0.0024245 0.010436537 -0.00070173905 0.00095912424 0.0016053228 -0.0062028039 -0.010953649 -0.00040770791 -0.00062910799 -0.00018333252 -0.0041593155 0.0084811607 0.013348417 -0.0029702736 0.0042132931 0.0098902304 -0.0058490005 -0.0031480817 -0.016492818 0.0054539535 -0.00082056614 -0.00042173945 -0.0025747889 -0.007671867 -0.0020060297 -0.0097019048 -0.0077798716 0.010377736 -0.0030998124 -0.0025217261 -0.0058342214 0.0009341953 0.00025727676 0.001211836 -0.0023004825 0.0018428506 -0.00087354134
περίπτωση 0.0043484261 -0.0078420434 -0.0023791473 0.010061342 -0.01110915 0.0012741807 -0.0065595908 -0.00019716483 0.0014632808 0.0021557263 -0.0060427017 -0.0058870814 0.00068233768 0.0050193123 -0.0033791191 -0.0039539095 0.0062083742 -0.0041423119 -0.0067664594 0.0087106908 0.0035458663 0.0036653951 0.0045600962 -0.0085190982 0.00071739685 0.0034404024 0.0047507342 -0.005145513 0.00077023183 -0.0013738078 -0.0020917845 -0.0079821032 -0.015150495 0.0020922725 0.0032186855 -0.00290384 0.0059042862 0.0016231792 -0.0018500171 -0.0066007995 0.0012633901 -0.0046291226 0.0063577406 -0.0075514377 -0.0028839768 -0.0033065495 0.00095241598 0.0014475457 0.0019424615 0.0041058906 0.0072452952 0.004492206 -0.0045195003 -0.0039823367 -0.011940044 -0.0041249311 -0.005605781 -0.0079517057 -0.0074512535 -0.0038384707 9.0949761e-05 0.00071423076 -0.0018030332 0.00046267078 -0.0078223478 0.0085851224 0.0048283935 0.00020962654 0.012257481 -0.0090214778 -0.0032229137 0.0010900033 0.014383698 0.014048089 -0.0046432386 -0.0041072238 0.0029518262 0.0010476683 0.00030903923 -0.0011287917 0.0068393443 -0.00067255134 0.003037743 -0.0061741509 0.013318832 0.0034759701 0.0068209535 0.00044503182 0.0035507306 0.00090944004 0.0035756631 -0.00035179965 -0.0053984527 0.0028340677 -0.0017420789 -0.0051715816 -0.0061582378 -0.0055578081 -0.002369158 0.0071896249 -0.012149569 0.010894439 -0.0067473999 0.0077825612 0.0034614145 0.0027015633 0.0052823387 -0.0013384969 -0.0043223039 -0.0059486846 0.0033501917 -0.011494151 -0.0013478991 0.0042269579 0.0053063859 -0.0043009026 -0.0043226816 0.0022534176 0.0092344414 0.0052056941 -0.00096352975 -0.0026012128 -0.0023763855 -0.0022690943 -0.00085632229 0.0032022758 -0.0021836208 0.0011350746 -0.0054628151 0.0068730726 0.0052789766 -0.001455037 0.004962388 -0.0091799712 -0.0076278783 0.0058307559 0.0068516023 0.0083633289 0.004342637 0.0078239189 0.0043412182 0.0013966758 0.0076718377 0.0014297961 -0.0039944593 0.0036988596 0.0054101422 -0.00083715294 8.7072243e-05 -0.0012535233 -0.0060429503 -0.0038228096 0.0022403544 0.0078335991 0.010409931 -0.004031505 0.0046901908 0.00074334617 -0.0046688211 -0.0026888123 -0.0027476398 0.0056270268 -0.00073639839 0.00036049209 0.012020038 -0.0026194146 0.00035164109 0.0023736998 -0.0034744195 -0.012590864 0.0036285338 0.00060362794 -0.0033649011 -0.0085383486 0.010428905 0.012445227 -0.0024310867 0.0046076272 0.012725128 -0.0032566928 -0.0031983093 -0.016949413 0.0052629602 -0.0021318456 -0.001253971 -0.0020971524 -0.010691488 -0.004900252 -0.011763717 -0.0042167888 0.0067423712 0.00035995664 -0.0014680213 -0.0077310679 0.0011884042 0.0010310382 0.0014108272 -0.0022315241 0.0057366821 0.0030302112
αρμόδιες 0.00092088105 -0.0065906411 -0.0022405095 0.0061309179 -0.0078328811 0.00054772256 -0.0015104311 0.00010395274 0.0050806287 0.00062261219 -0.0029625488 -0.006092506 -0.00023473099 0.0031826531 -0.0022134192 -0.0042699622 0.0048952652 -0.0041720173 -0.0076306416 0.0064633065 0.0051266728 0.0025392519 0.0039681499 -0.004515145 0.0020906334 -0.00084005098 0.002864986 -0.0021505128 0.0022866288 -0.0015191047 -0.0002199692 -0.0043260627 -0.011455992 0.0031180233 0.001427092 -0.0033248605 0.0043492857 0.00023563977 0.00069746381 -0.0022899474 -0.00093727035 -0.0035785912 0.002650107 -0.0056306166 -0.0043955673 -0.0053282357 -0.0018360118 0.0039753099 -0.00027773634 0.0030169438 0.0051010908 0.0046280273 -0.0023744963 -0.00086215977 -0.011662877 -0.0048713596 -0.0055294456 -0.0049577802 -0.0054215933 -0.0055320119 0.0012146592 -0.0011008204 0.0010024931 0.0009431332 -0.0071253665 0.0033582544 0.0018013917 -0.0029581026 0.0086779622 -0.0073633734 -0.0018917194 -0.0026425701 0.0096251033 0.012117007 -0.0034241795 -0.0043231575 0.0017209708 -0.0021566763 0.0027247542 -0.0015762349 0.0071091652 0.00344825 0.0035255228 -0.00070334377 0.010756025 0.0042099413 0.0048991102 0.0015662051 0.0045377268 -0.0012455835 0.0021064992 -0.00032582253 -0.0029861638 0.0028600181 -0.0029027723 -0.0045017488 -0.0013542102 -0.007152047 -0.003836035 0.0054811221 -0.0059694918 0.0068174554 -0.0026861031 0.0075006383 0.00039583031 0.0027628643 0.0040028235 -0.0009859188 -0.0022447594 -0.0025789132 0.0022673486 -0.011262968 -0.0043248008 0.0012148782 0.0075411573 -0.0015022267 -0.0047018137 0.0016033915 0.0056201895 0.0029401977 0.0030132693 -0.0030658895 -0.0022103125 -0.0037198483 0.00084787182 0.0029776157 -0.0045603355 0.00066373579 -0.0018572451 0.0060567749 0.0010756324 -0.003076555 0.0018587246 -0.0072008208 -0.0034196095 0.0056794034 0.0055045304 0.0038405072 0.0069075217 0.0067688683 0.0016540976 0.0015274314 0.0039330758 0.00073666434 -0.0064424775 0.0011904817 0.0052182619 0.00041439466 0.00090113061 -0.0011987526 -0.0025131381 -0.0027402649 0.0029055851 0.0060617244 0.0090213083 -0.0045420076 0.0068909461 -0.0011530544 -0.004106042 -0.0036424617 -0.0016596195 0.0040188003 0.00099224714 0.0020283388 0.0095658302 -0.0033540821 0.0024093138 -0.00061696843 -0.0028478189 -0.010562481 0.0028480797 0.0013577673 -0.0014240829 -0.0041643847 0.0087292353 0.013831644 -0.0023350865 0.003605121 0.0075680148 -0.0056792395 -0.0044295164 -0.01651625 0.006388953 -0.0029879978 -0.0020495015 -0.0020994134 -0.0072149588 -0.0015077029 -0.0076938421 -0.0024229565 0.0081081465 -0.00085287058 0.0017745977 -0.0072513307 -0.0010158132 0.0019476505 3.5547255e-05 -0.0024041934 0.0040670014 0.0027321139
παρόντος 0.0046268525 -0.008755425 -0.0036854781 0.0067496975 -0.0068758167 -0.0028739222 -0.0051644859 0.002478933 0.0037716832 2.4920864e-05 -0.00084009359 -0.0023869998 0.0037917595 0.0063132565 -0.0036820297 -0.0033430227 0.0074129123 -0.003033781 -0.0034235592 0.0061114049 0.0069054812 0.0060312115 0.0039182976 -0.0029790499 -0.00041618207 0.00092241442 0.0030298291 -0.0011158898 -5.5978024e-05 -0.00036069492 -0.0028736247 -0.0067233704 -0.010746774 0.00056406832 0.0042605787 -0.0017822984 0.0067160549 0.0013179643 -0.0031737816 -0.0028945908 -0.001530776 -0.0055421274 0.0016510037 -0.004670945 -0.0033576344 -0.0017275644 -0.0013986193 0.0044190544 0.0013411208 0.0040022358 0.0059465379 0.0057887505 -0.0017288787 -0.00019128993 -0.0090990076 -0.0015234868 -0.0043345387 -0.0050311326 -0.005802155 -0.0060902634 -0.0033486593 -0.00049208978 -4.6005945e-05 0.0026082525 -0.0049597258 0.0030849173 0.0033201459 -0.0025969562 0.0088773081 -0.0062060426 -0.0056008305 -0.0027244915 0.0071243863 0.011115267 -0.0071358695 -0.0044543725 0.0017765086 0.0017416655 -0.00046721741 0.0012324234 0.0033313648 0.0034685018 0.0019246197 -0.0046357377 0.0090814177 0.0020367964 0.0045129056 0.0035071007 5.8694841e-06 0.00069992483 0.0034907723 -0.00062146276 -0.0025591964 0.0009436098 -0.0012433504 -0.0066778725 -0.0020696062 -0.0037210304 -0.002685189 0.004475967 -0.008944639 0.0086850272 -0.0052834302 0.0052500078 0.0022875639 0.0021050323 0.0023506773 0.00016010027 -0.0050786994 -0.0038478968 -0.0003235426 -0.0068934695 -0.0047610672 0.0021260781 0.0063315732 -0.0024594993 -0.00060225453 0.0028665299 0.0073032379 0.0027022704 -0.0013617188 -0.0024122363 -0.004589932 -0.0028743402 -5.9024485e-05 -0.00050820957 -0.0036066563 0.0021419621 -0.0025982598 0.0071977288 0.0031938783 -0.0016586055 0.0054812827 -0.0049970113 -0.003781009 0.0061051561 0.0062710838 0.0051728301 0.0040561287 0.0093800174 0.00085580093 0.0013245143 0.0053918497 0.0013826189 -0.005371016 0.0036776224 0.0033539173 0.0018951691 0.00043392266 -0.0001283614 -0.0016377105 -0.0047548697 0.002457988 0.0034009623 0.0058078724 -0.0033581443 0.0074638897 -0.00088321324 -0.0033063854 -0.0046753623 -0.00043485122 0.0022327036 -0.0030150348 0.0020230259 0.010452601 0.0011861422 -0.001312678 0.0036366098 -0.0041389819 -0.0087625049 0.0029155093 0.0033645714 -0.00089292054 -0.0052299299 0.0050740619 0.010473556 -0.0036686526 0.0036313536 0.011484608 -0.0022216027 -0.0039285733 -0.015792748 0.0058095488 -0.0034411326 -0.0020829488 -0.0019028578 -0.0052670268 0.00029219413 -0.0094606103 -0.007008811 0.0074115363 -0.0029161435 -0.0024870762 -0.0074757324 0.00015480118 0.0017426172 -0.0020284082 -0.0025268244 0.0030333058 -4.7478956e-05
Ε 0.00085638661 0.0013913242 -0.0020268217 -0.00031338551 -0.0012375684 0.0010240726 0.0018256488 -0.0012851825 0.0015448919 -0.0014608561 0.0013212799 -0.0010047066 -0.00073630241 0.00024515647 -0.0007582726 -0.0013467593 0.0024352823 0.0013498806 -0.0013300974 -0.001951581 -7.3783543e-05 -0.00095618126 0.0024533439 0.00077982125 0.00020044483 -0.00080242613 -1.9279314e-05 0.00076911831 -0.00086487044 0.0011868104 6.7664558e-05 0.0019675833 0.0015094428 0.0012072738 -0.0024933829 -0.00038027266 -0.0023380541 0.0012243399 0.00050545181 -0.0016566487 -0.0016546838 0.0010086487 -0.00077474955 0.0024992633 -0.00078061526 0.0024257554 -0.0024528608 -0.00029356073 0.00013600499 -0.0010309669 -0.0021533766 -0.00094931351 -0.0010916353 -0.000797157 0.00047693387 -0.00091232313 -0.00072080002 0.0018735433 -0.00089208432 0.0015923354 -0.00025489402 0.001448939 0.0010976569 0.0017936142 -0.0012568227 -0.00072511635 -0.00085787638 -0.00024491191 -0.00017330493 0.00067348708 -0.0023017488 -0.0010953724 0.0022999663 0.0001353868 0.0014825375 0.0021528094 -0.0014085115 0.0018254563 -0.0016302015 -0.00013578882 -0.0010284572 0.0016843521 0.0018135569 0.0014632304 0.0021280961 -0.0013710179 0.0014984073 0.00076605036 0.0023522566 -0.0014033511 6.6402517e-06 0.00020193157 -0.0018116229 -0.001010759 -0.0020124444 -0.00040200079 0.0022301644 -0.0018315691 -0.0023608254 -4.4599366e-07 0.0021720754 0.0020695492 0.0014586371 -0.0019593588 -0.001376157 -0.0021761858 -0.0024519793 0.0018095033 0.0024765939 0.00082808221 -0.0012926836 -0.0019875059 -0.0021849088 0.00047555644 0.0024296972 -0.0010401363 0.0021462557 -0.0012857236 0.0021022952 0.00028398601 0.0024341587 -0.0009173557 0.0014670852 -0.0014891467 0.0014773007 -0.0021769246 -0.0012451902 0.001695893 0.00037716379 0.00021517136 -0.0010904463 0.0016851695 -7.6979932e-06 0.00040939887 0.0020696872 0.0014317748 0.0011244332 -0.00056803023 0.00086124369 0.0016035814 -0.0024334749 -0.0014282728 0.0010226893 0.00058231247 -0.0023243106 -0.00020483161 0.00069799722 -0.0014416524 0.00025296328 0.0011796169 -0.0024428978 -0.0014604825 -0.0021285268 0.0019525444 7.4948322e-05 -0.00051953248 -0.00076086092 -0.0020471297 -0.0019350166 0.0022984084 -0.002266634 -0.001452786 -0.0014834072 -0.0015846917 0.0017524689 0.0015243384 -0.0021090962 -0.0024396826 0.0013735454 -0.00032337903 -0.0020801371 0.0010276724 0.0017578152 0.0019190735 -0.00017868065 -0.00089640723 0.000659991 0.0014670126 0.001206987 -0.00041232925 -0.0021787381 -0.002261044 0.00018200782 0.00077168987 0.00048433809 -0.00047125036 1.1474149e-05 0.0016869324 -0.0023079275 -0.00040519654 0.00082003983 0.00085111347 0.0020941151 0.0022549452 0.0019577267 -0.0019934219 -0.0019073514 0.002395631 0.0016832369 0.0013357911
